{
	"layers": [
		{
			"name": "image",
			"type": "inputImageLayer",
			"index": 0,
			"width": 24,
			"height": 24,
			"depth": 1
		},
		{
			"name": "conv1",
			"type": "convLayer",
			"index": 1,
			"units": 10,
			"weights": [
				[
					-0.40362465381622314,
					0.14429707825183868,
					0.3380098044872284,
					0.12806200981140137,
					0.33846762776374817,
					-0.6508873701095581,
					-0.7251802086830139,
					-0.21486258506774902,
					-0.12389408051967621,
					-0.29444992542266846,
					-0.19253641366958618,
					-0.4499257802963257,
					-0.7210139036178589,
					-0.273910790681839,
					-0.5673767924308777,
					0.34855562448501587,
					-0.12466050684452057,
					-0.01773381419479847,
					-0.35099485516548157,
					-0.33072715997695923,
					0.12220565974712372,
					0.19119277596473694,
					0.002165764570236206,
					-0.2340202033519745,
					-0.27167510986328125
				],
				[
					-0.42198118567466736,
					-0.5754480957984924,
					0.15104517340660095,
					0.20219428837299347,
					0.028250837698578835,
					-0.6784213185310364,
					-0.13487938046455383,
					0.8425424695014954,
					-0.017188850790262222,
					-0.11453723907470703,
					-0.3430083990097046,
					0.27383190393447876,
					0.9027392864227295,
					-0.530919075012207,
					-0.47502556443214417,
					-0.0914568305015564,
					0.4959629774093628,
					-0.012299816124141216,
					-0.27684688568115234,
					-0.38663896918296814,
					0.14334721863269806,
					0.019220944494009018,
					-0.29982614517211914,
					-0.250318318605423,
					0.014440866187214851
				],
				[
					0.2699172794818878,
					0.16345611214637756,
					0.1010364517569542,
					-0.16493786871433258,
					0.19970552623271942,
					0.25168874859809875,
					0.3659275770187378,
					-0.6417461633682251,
					-0.27498868107795715,
					-0.05272987112402916,
					0.17222699522972107,
					0.2543073892593384,
					-0.25878381729125977,
					-0.07718546688556671,
					0.37653014063835144,
					0.0876692458987236,
					0.7329808473587036,
					0.29102659225463867,
					0.41328415274620056,
					0.4303438365459442,
					-0.049516983330249786,
					-0.02336808666586876,
					-0.011195464991033077,
					-0.17213481664657593,
					-0.071168452501297
				],
				[
					-0.2734313905239105,
					-0.24805349111557007,
					-0.4913996756076813,
					-0.14595389366149902,
					-0.018496379256248474,
					-0.16132961213588715,
					0.24712027609348297,
					0.5170316696166992,
					0.5586766600608826,
					0.33236438035964966,
					0.14415717124938965,
					0.14005053043365479,
					0.32869261503219604,
					-0.10303694009780884,
					-0.33255311846733093,
					0.25147366523742676,
					-0.06531895697116852,
					-0.21127361059188843,
					0.23995064198970795,
					0.2597295045852661,
					0.3723491430282593,
					0.1542644053697586,
					-0.002158177550882101,
					0.1292881965637207,
					0.16984835267066956
				],
				[
					0.01196330226957798,
					0.5841354727745056,
					0.5681238770484924,
					0.6162899136543274,
					0.5416231155395508,
					0.13166160881519318,
					-0.14395567774772644,
					-0.25905776023864746,
					-0.29181480407714844,
					0.23340606689453125,
					-0.027411244809627533,
					-0.7787781357765198,
					-0.3317554295063019,
					-0.31542542576789856,
					-0.7906494140625,
					-0.3472926914691925,
					0.12942524254322052,
					-0.1605643779039383,
					-0.12131615728139877,
					-0.24692322313785553,
					-0.07467421889305115,
					0.12372811883687973,
					-0.13472069799900055,
					0.08577165752649307,
					0.05360915884375572
				],
				[
					0.17305918037891388,
					0.08103456348180771,
					-0.26917529106140137,
					-0.2334837019443512,
					0.08671095222234726,
					0.07854422926902771,
					0.30062371492385864,
					0.04094119369983673,
					-0.9508939385414124,
					-0.09344913065433502,
					-0.0372026264667511,
					0.40612632036209106,
					0.5211786031723022,
					-0.7225157022476196,
					-0.6741375923156738,
					-0.3459776043891907,
					0.45782750844955444,
					1.0623197555541992,
					-0.15817785263061523,
					-0.5807833075523376,
					-0.5068984031677246,
					-0.07292249798774719,
					0.4942514896392822,
					0.688901424407959,
					-0.002596806501969695
				],
				[
					0.5887113213539124,
					0.020540550351142883,
					0.13936497271060944,
					-0.4528053402900696,
					-0.6907187104225159,
					0.16281931102275848,
					0.3472888171672821,
					0.0683833658695221,
					-0.36674684286117554,
					-0.5557536482810974,
					0.5875669121742249,
					0.2608470916748047,
					0.08486958593130112,
					-0.5014204382896423,
					-0.5251010656356812,
					0.30622708797454834,
					0.1235538199543953,
					-0.2250441461801529,
					-0.3924410939216614,
					-0.20270811021327972,
					-0.10910018533468246,
					-0.34030285477638245,
					-0.5366454124450684,
					-0.46666979789733887,
					-0.5485989451408386
				],
				[
					-0.38696831464767456,
					-0.08336901664733887,
					0.09112729132175446,
					0.48861613869667053,
					0.37390434741973877,
					-0.03815365582704544,
					-0.10535985976457596,
					-0.25655338168144226,
					-0.3457660973072052,
					0.6845878958702087,
					-0.18394805490970612,
					-0.1946965605020523,
					-0.22456969320774078,
					-0.07826421409845352,
					0.7958972454071045,
					-0.3365541994571686,
					-0.2082396000623703,
					-0.042494941502809525,
					-0.13357728719711304,
					0.4627983272075653,
					-0.31663528084754944,
					-0.1964762657880783,
					-0.2704885005950928,
					0.08912359178066254,
					0.494602769613266
				],
				[
					-0.0930938571691513,
					-0.0640132948756218,
					-0.033524077385663986,
					0.7319895029067993,
					0.544884979724884,
					-0.18156114220619202,
					-0.21290533244609833,
					0.29946190118789673,
					0.5260343551635742,
					0.8411980271339417,
					-0.2996479272842407,
					-0.27185240387916565,
					-0.5863943696022034,
					0.049821194261312485,
					0.4374939203262329,
					-0.36961814761161804,
					-0.35405081510543823,
					-0.36159905791282654,
					-0.8434097766876221,
					-0.6938062906265259,
					-0.3158123791217804,
					-0.24119508266448975,
					-0.38052570819854736,
					-0.3815959393978119,
					-0.7865534424781799
				],
				[
					-0.008912344463169575,
					-0.07257696986198425,
					-0.24496158957481384,
					0.04848741739988327,
					0.0326341949403286,
					-0.35730183124542236,
					-0.5786370635032654,
					-0.5240376591682434,
					-0.2459784299135208,
					-0.1150510162115097,
					-0.3276514708995819,
					-0.2302643209695816,
					-0.428377240896225,
					-0.4768575429916382,
					-0.3581022024154663,
					0.27233436703681946,
					-0.08981695026159286,
					-0.3166961669921875,
					-0.2159978151321411,
					0.013666996732354164,
					0.46609607338905334,
					0.4773809313774109,
					0.7322208881378174,
					0.6518750190734863,
					0.40716540813446045
				]
			],
			"kernelWidth": 5,
			"kernelHeight": 5,
			"padX": 0,
			"padY": 0,
			"biases": [
				0.47196051478385925,
				-0.2325093299150467,
				-0.9694974422454834,
				-0.8595354557037354,
				-0.15118159353733063,
				-0.7137814164161682,
				-0.10654325783252716,
				-0.7923336625099182,
				0.023437440395355225,
				-0.054072845727205276
			]
		},
		{
			"name": "pool1",
			"type": "maxPoolLayer",
			"index": 2,
			"poolWidth": 2,
			"poolHeight": 2,
			"strideX": 2,
			"strideY": 2
		},
		{
			"name": "conv2",
			"type": "convLayer",
			"index": 3,
			"units": 20,
			"weights": [
				[
					-0.08403211832046509,
					0.13312193751335144,
					0.006557891145348549,
					0.010183648206293583,
					0.029156189411878586,
					0.06007419899106026,
					-0.004055313766002655,
					0.13741688430309296,
					-0.03827773034572601,
					-0.009780406020581722,
					-0.0021378144156187773,
					0.0008017403306439519,
					-0.011897029355168343,
					-0.013834402896463871,
					0.042418431490659714,
					0.08685807138681412,
					0.02634311467409134,
					0.08317463099956512,
					-0.055054303258657455,
					-0.08847633004188538,
					0.14600735902786255,
					0.056861020624637604,
					0.04832511022686958,
					0.0057418467476964,
					-0.13688212633132935,
					0.042575396597385406,
					-0.07929180562496185,
					-0.0632520392537117,
					0.07208626717329025,
					-0.01336114201694727,
					-0.0050849816761910915,
					-0.026781193912029266,
					-0.05775764584541321,
					-0.053076960146427155,
					-0.03172659873962402,
					0.020096568390727043,
					-0.010683128610253334,
					0.018277551978826523,
					-0.08852968364953995,
					-0.05303908884525299,
					0.010142603889107704,
					-0.11459070444107056,
					0.005719832144677639,
					0.07740265876054764,
					0.0942087396979332,
					-0.18750393390655518,
					0.0922054648399353,
					-0.10397198051214218,
					0.03482513129711151,
					0.023581475019454956,
					-0.027019696310162544,
					-0.0645284503698349,
					-0.08962397277355194,
					-0.15926378965377808,
					-0.2167006880044937,
					-0.05096259340643883,
					-0.1372469961643219,
					-0.11083383113145828,
					-0.10144942998886108,
					-0.03392205014824867,
					-0.047258201986551285,
					-0.07159186899662018,
					-0.009291676804423332,
					0.027378464117646217,
					0.02450820803642273,
					-0.07073484361171722,
					-0.16898837685585022,
					-0.07996148616075516,
					0.048139601945877075,
					-0.06751143932342529,
					-0.0076941135339438915,
					-0.11373937129974365,
					0.02358199469745159,
					0.03215908631682396,
					0.05807953327894211,
					-0.1326657384634018,
					-0.11685219407081604,
					-0.20121316611766815,
					-0.1326718032360077,
					-0.012459056451916695,
					-0.15563011169433594,
					-0.09411872178316116,
					-0.17120331525802612,
					0.003871237626299262,
					0.07179153710603714,
					-0.04832218214869499,
					-0.06720327585935593,
					-0.08294403553009033,
					0.03472639247775078,
					0.14775216579437256,
					-0.04924532398581505,
					-0.050876419991254807,
					-0.08831637352705002,
					-0.02804274670779705,
					0.1691693514585495,
					-0.030553895980119705,
					-0.03168731555342674,
					-0.04441981390118599,
					0.14557301998138428,
					0.30517488718032837,
					-0.0008173082605935633,
					-0.04242311045527458,
					-0.16254490613937378,
					-0.22641825675964355,
					-0.08785022795200348,
					-0.0021374402567744255,
					-0.03543601930141449,
					-0.1847415417432785,
					-0.13594387471675873,
					-0.1414281129837036,
					-0.06123526394367218,
					0.012440809048712254,
					-0.07746737450361252,
					-0.043154604732990265,
					-0.05774753540754318,
					0.025774912908673286,
					-0.06316570192575455,
					-0.12025195360183716,
					-0.10991206765174866,
					-0.07386980205774307,
					0.009050826542079449,
					0.017831729725003242,
					-0.008738714270293713,
					-0.09870333224534988,
					-0.1329907774925232,
					0.04815342277288437,
					-0.04872895032167435,
					-0.000050925118557643145,
					-0.06055166944861412,
					0.009773783385753632,
					0.05990670993924141,
					-0.07499449700117111,
					-0.02514764852821827,
					0.029998959973454475,
					-0.09500222653150558,
					-0.05174357444047928,
					-0.0489446185529232,
					0.05246240273118019,
					-0.10970398783683777,
					-0.0017254225676879287,
					0.006422177888453007,
					-0.032584257423877716,
					-0.07210100442171097,
					0.027457261458039284,
					0.020315369591116905,
					-0.11583345383405685,
					-0.08044041693210602,
					0.030532393604516983,
					-0.08665164560079575,
					0.05466799810528755,
					0.08194209635257721,
					0.05400678887963295,
					0.03600015118718147,
					-0.0017575862584635615,
					-0.008291876874864101,
					0.10678716003894806,
					-0.04796851798892021,
					-0.015285750851035118,
					-0.12307284772396088,
					0.08856205642223358,
					0.03969404101371765,
					-0.11958696693181992,
					-0.11574620753526688,
					-0.05965651571750641,
					0.02811969444155693,
					-0.03887517377734184,
					-0.07892157137393951,
					0.004463748540729284,
					-0.08914795517921448,
					-0.0033007445745170116,
					-0.1353711634874344,
					0.060510993003845215,
					-0.0012337688822299242,
					-0.0004679740231949836,
					0.17753104865550995,
					-0.05914797633886337,
					-0.18338026106357574,
					-0.09217946231365204,
					-0.057590387761592865,
					0.18002481758594513,
					-0.17244744300842285,
					-0.18196764588356018,
					-0.02821960486471653,
					-0.0193779356777668,
					0.36918291449546814,
					-0.15031807124614716,
					-0.22756130993366241,
					0.046794965863227844,
					-0.044705357402563095,
					0.22981047630310059,
					-0.0766170471906662,
					-0.07595113664865494,
					-0.03157317638397217,
					0.14121240377426147,
					0.28115639090538025,
					-0.0399041511118412,
					-0.21258020401000977,
					0.04987182095646858,
					0.1542554795742035,
					0.3759152591228485,
					-0.03753330558538437,
					-0.08660183846950531,
					-0.08864020556211472,
					-0.09443935751914978,
					-0.1231832429766655,
					-0.0586710162460804,
					-0.015947045758366585,
					-0.058727484196424484,
					-0.10399191826581955,
					-0.11909715086221695,
					-0.04763192683458328,
					-0.04043293744325638,
					-0.025391891598701477,
					-0.10302557796239853,
					-0.1768374741077423,
					-0.05877424776554108,
					-0.06408915668725967,
					-0.04501670226454735,
					-0.16726970672607422,
					-0.06919530034065247,
					-0.015675287693738937,
					0.01614605449140072,
					-0.0994807556271553,
					-0.2749643623828888,
					-0.11026693135499954,
					-0.08113421499729156,
					-0.03601168468594551,
					-0.11157727241516113,
					-0.017053116112947464,
					-0.03115307353436947,
					-0.032575927674770355,
					-0.050946008414030075,
					-0.05042100325226784,
					-0.1379086673259735,
					0.00396580807864666,
					0.09118170291185379,
					-0.09175918996334076,
					-0.04269096627831459,
					0.14285783469676971,
					-0.06495756655931473,
					-0.022226016968488693,
					-0.09873367846012115,
					0.09507912397384644,
					-0.10923402011394501,
					-0.15561284124851227,
					-0.1266034096479416,
					-0.12209268659353256,
					0.03987251594662666,
					-0.030942045152187347,
					-0.14539168775081635
				],
				[
					-0.08206457644701004,
					-0.032396674156188965,
					-0.01855863817036152,
					0.06476394087076187,
					0.0769091323018074,
					-0.11811429262161255,
					0.09287315607070923,
					-0.08204197138547897,
					0.01048225723206997,
					-0.09917765110731125,
					-0.08417930454015732,
					-0.10461746156215668,
					-0.0364784337580204,
					-0.17323486506938934,
					-0.1247769221663475,
					0.0018283334793522954,
					-0.0909387394785881,
					-0.10973575711250305,
					-0.07756143808364868,
					-0.1305146962404251,
					-0.16506561636924744,
					0.060018423944711685,
					0.04678779095411301,
					-0.05125850811600685,
					-0.012586956843733788,
					-0.05541684105992317,
					-0.14542783796787262,
					-0.054293256253004074,
					-0.09996378421783447,
					-0.2614498734474182,
					-0.09385327249765396,
					-0.017936166375875473,
					-0.011583649553358555,
					-0.017781151458621025,
					-0.09015001356601715,
					0.04153723642230034,
					0.1215069591999054,
					0.0350818857550621,
					0.0303095243871212,
					-0.06426046788692474,
					0.0030528174247592688,
					0.09331496059894562,
					0.09463511407375336,
					-0.04834766313433647,
					0.000992368906736374,
					-0.031645435839891434,
					0.23495909571647644,
					0.06487110257148743,
					-0.043210890144109726,
					0.04301316663622856,
					0.14019189774990082,
					0.09117891639471054,
					0.08869380503892899,
					0.16318053007125854,
					0.3279319107532501,
					0.03743547573685646,
					-0.0074921296909451485,
					-0.020949209108948708,
					0.08099722862243652,
					0.1203983873128891,
					-0.18721792101860046,
					-0.16752134263515472,
					-0.17371879518032074,
					-0.09705445915460587,
					-0.05808859318494797,
					-0.30573374032974243,
					-0.19238686561584473,
					-0.12262779474258423,
					-0.04507097601890564,
					-0.05557120591402054,
					-0.4690609872341156,
					-0.21176673471927643,
					-0.15957510471343994,
					-0.17360816895961761,
					-0.19716082513332367,
					0.29871296882629395,
					0.15683138370513916,
					0.2569178342819214,
					0.11774895340204239,
					0.3546668589115143,
					-0.06014666333794594,
					-0.10637472569942474,
					-0.20778673887252808,
					-0.10390368849039078,
					0.09849698096513748,
					-0.12898442149162292,
					-0.3791823089122772,
					-0.28717905282974243,
					-0.01624296046793461,
					0.06643488258123398,
					-0.4452158212661743,
					-0.2869381308555603,
					-0.030745087191462517,
					0.13255517184734344,
					-0.028747282922267914,
					-0.37744972109794617,
					-0.19491739571094513,
					0.040954750031232834,
					-0.004939106293022633,
					-0.08822779357433319,
					0.11584082245826721,
					0.23291613161563873,
					0.11092139035463333,
					-0.00391688896343112,
					-0.0883522629737854,
					0.073716901242733,
					0.0754721611738205,
					0.1467394381761551,
					-0.00944848544895649,
					0.12167982757091522,
					0.0818040743470192,
					0.13182902336120605,
					0.08686402440071106,
					0.061578501015901566,
					0.036562561988830566,
					-0.06595098972320557,
					-0.10308074951171875,
					-0.24148403108119965,
					0.0014742437051609159,
					-0.01900777593255043,
					-0.2145245373249054,
					-0.1996019333600998,
					-0.09101145714521408,
					0.020128972828388214,
					0.00906094629317522,
					0.036737214773893356,
					0.18049313127994537,
					0.13139967620372772,
					-0.06228597089648247,
					-0.06508143991231918,
					0.07627285271883011,
					-0.16819216310977936,
					-0.10473434627056122,
					-0.2527143061161041,
					-0.2200685739517212,
					-0.019090700894594193,
					-0.17836472392082214,
					-0.11846975982189178,
					-0.19980478286743164,
					-0.14858287572860718,
					-0.2228841483592987,
					-0.1405695676803589,
					0.04159663990139961,
					0.015470555052161217,
					-0.002103838138282299,
					-0.255456805229187,
					-0.13315272331237793,
					-0.11611802875995636,
					-0.07249109447002411,
					-0.018864266574382782,
					0.02444399707019329,
					0.08046340197324753,
					-0.0740482434630394,
					-0.09736450761556625,
					-0.28560012578964233,
					0.04331817105412483,
					-0.008440370671451092,
					-0.001785720232874155,
					-0.22884932160377502,
					-0.16959981620311737,
					0.20801053941249847,
					0.12827490270137787,
					-0.000006104717613197863,
					-0.0021868746262043715,
					0.02643989957869053,
					-0.05396678298711777,
					0.14324769377708435,
					0.10836222022771835,
					0.23930737376213074,
					0.2241048514842987,
					-0.07247796654701233,
					-0.07307590544223785,
					0.07527882605791092,
					0.30887696146965027,
					0.3001631200313568,
					0.13520829379558563,
					0.05923568084836006,
					-0.015691598877310753,
					0.08107255399227142,
					0.41373395919799805,
					0.06472548842430115,
					0.01844959519803524,
					-0.11788641661405563,
					0.18097874522209167,
					0.22260798513889313,
					-0.09597901999950409,
					-0.10227694362401962,
					-0.11723514646291733,
					-0.12771011888980865,
					-0.018770592287182808,
					-0.19380885362625122,
					-0.02951522171497345,
					0.07534746825695038,
					0.03237444907426834,
					0.06814512610435486,
					-0.19285261631011963,
					0.04092138633131981,
					0.19865894317626953,
					0.3197058439254761,
					0.015208686701953411,
					-0.10801590979099274,
					0.29086074233055115,
					0.28992894291877747,
					0.2801697850227356,
					0.28168389201164246,
					-0.044302601367235184,
					0.07167048007249832,
					-0.006566521245986223,
					-0.02821853756904602,
					0.0006078589358367026,
					0.18193800747394562,
					0.010496526956558228,
					-0.2552362382411957,
					-0.061095524579286575,
					-0.10439148545265198,
					0.07849197834730148,
					-0.21797701716423035,
					-0.24907442927360535,
					-0.0995633602142334,
					-0.05985565483570099,
					-0.16317054629325867,
					0.05180750787258148,
					0.16302666068077087,
					-0.03915461525321007,
					0.10433486849069595,
					-0.17603375017642975,
					0.17502905428409576,
					0.2887323200702667,
					0.19955042004585266,
					0.1363670527935028,
					-0.0940488651394844,
					-0.07435023784637451,
					-0.2243252992630005,
					-0.19576279819011688,
					-0.192243292927742,
					-0.21772590279579163,
					-0.18489213287830353,
					-0.1441441774368286,
					0.068536676466465,
					0.04518748074769974,
					-0.48119261860847473,
					-0.25216585397720337,
					-0.047183357179164886,
					0.16112378239631653,
					-0.040812890976667404,
					-0.4296632409095764,
					-0.3308209180831909,
					-0.17149078845977783,
					-0.26806506514549255,
					-0.35773569345474243
				],
				[
					0.1651122272014618,
					0.16223062574863434,
					0.09123162925243378,
					-0.06526307761669159,
					-0.09718876332044601,
					0.006860804744064808,
					0.10624535381793976,
					0.08345609158277512,
					0.13743898272514343,
					-0.051530711352825165,
					-0.13055561482906342,
					-0.021014278754591942,
					0.1470690369606018,
					0.13933375477790833,
					-0.025680169463157654,
					0.016958490014076233,
					0.21023637056350708,
					0.03435410186648369,
					0.060088880360126495,
					0.10535447299480438,
					0.12986361980438232,
					0.09706736356019974,
					0.17227959632873535,
					-0.002143816091120243,
					0.010445946827530861,
					-0.23419460654258728,
					0.046886906027793884,
					0.032517485320568085,
					0.1255786269903183,
					0.02823323756456375,
					-0.22801795601844788,
					0.07570700347423553,
					0.035720717161893845,
					0.006243957206606865,
					0.07107630372047424,
					-0.24381349980831146,
					-0.052872274070978165,
					0.032425131648778915,
					0.19598963856697083,
					-0.03162267059087753,
					-0.18717622756958008,
					-0.1510959416627884,
					0.017791643738746643,
					-0.00977475754916668,
					-0.13004209101200104,
					-0.23578140139579773,
					-0.11915954202413559,
					-0.04692339524626732,
					-0.19614942371845245,
					-0.015712976455688477,
					0.15071384608745575,
					0.0805339366197586,
					0.07784199714660645,
					0.1873386651277542,
					0.4395780861377716,
					0.07189512252807617,
					0.08683961629867554,
					0.2249816656112671,
					0.11982113122940063,
					0.17489390075206757,
					-0.048587165772914886,
					-0.249573215842247,
					-0.20705218613147736,
					-0.13106845319271088,
					-0.21684964001178741,
					-0.13057507574558258,
					-0.26101914048194885,
					-0.24779318273067474,
					-0.1265796422958374,
					-0.14832757413387299,
					-0.28848570585250854,
					-0.25119704008102417,
					-0.26040342450141907,
					0.03618425503373146,
					0.00633798073977232,
					0.045107778161764145,
					-0.13882772624492645,
					0.06968849897384644,
					0.083407461643219,
					0.1125875860452652,
					-0.03282427042722702,
					-0.08798258006572723,
					0.06764845550060272,
					0.09863052517175674,
					0.3176141679286957,
					-0.2763914167881012,
					-0.27354857325553894,
					-0.10573019832372665,
					-0.06750542670488358,
					-0.12383913993835449,
					-0.2490120530128479,
					-0.3808775246143341,
					-0.2610427439212799,
					-0.32387104630470276,
					-0.3058609664440155,
					-0.2859143912792206,
					0.0042139263823628426,
					-0.04097931459546089,
					-0.07073470950126648,
					0.161198228597641,
					0.03165598213672638,
					-0.022199248895049095,
					-0.03193684294819832,
					-0.1239897832274437,
					-0.12120402604341507,
					-0.019652288407087326,
					0.06601487100124359,
					0.009835738688707352,
					0.13959749042987823,
					0.26706835627555847,
					-0.009558753110468388,
					0.13067787885665894,
					0.13839863240718842,
					0.17352385818958282,
					0.25869321823120117,
					0.042661238461732864,
					0.07233753055334091,
					0.0830451175570488,
					0.08123675733804703,
					0.013488083146512508,
					0.06013861298561096,
					-0.048805177211761475,
					0.00486702099442482,
					-0.12298748642206192,
					-0.12924037873744965,
					-0.006267217453569174,
					0.1929246336221695,
					-0.05244985595345497,
					-0.19091066718101501,
					-0.3003414571285248,
					0.032660964876413345,
					-0.053668100386857986,
					-0.15991276502609253,
					-0.08550028502941132,
					-0.08924444764852524,
					-0.013051453046500683,
					-0.06690319627523422,
					-0.04066566377878189,
					-0.1571519523859024,
					-0.244068443775177,
					-0.06282227486371994,
					-0.11553309857845306,
					-0.08378658443689346,
					0.121522456407547,
					-0.15625734627246857,
					-0.1995488554239273,
					0.005804019048810005,
					0.022060196846723557,
					0.0715811550617218,
					-0.1547141671180725,
					-0.11571987718343735,
					-0.02921132929623127,
					-0.006182435434311628,
					0.10597795248031616,
					0.03390488401055336,
					-0.25244465470314026,
					-0.1252080500125885,
					-0.10847572982311249,
					-0.10735223442316055,
					0.0058510866947472095,
					-0.2718995213508606,
					-0.1688763052225113,
					-0.06978660076856613,
					-0.038044273853302,
					-0.08371159434318542,
					-0.24092023074626923,
					-0.1740865856409073,
					0.0420539453625679,
					-0.06909763067960739,
					-0.2533336281776428,
					-0.3965415954589844,
					-0.07387509196996689,
					0.15119193494319916,
					-0.11633507907390594,
					-0.1148623526096344,
					-0.08102661371231079,
					-0.04626711457967758,
					0.02749680168926716,
					-0.07760092616081238,
					-0.2137788087129593,
					-0.00037399708526208997,
					-0.010234550572931767,
					-0.011408424004912376,
					0.11279100924730301,
					0.07129114866256714,
					-0.2152658998966217,
					0.07021792232990265,
					-0.22280991077423096,
					-0.06580881029367447,
					-0.2205490618944168,
					-0.4309980869293213,
					-0.07300493121147156,
					-0.07720887660980225,
					-0.24234062433242798,
					-0.38305193185806274,
					-0.28311318159103394,
					-0.05661953240633011,
					-0.16913144290447235,
					-0.2574079632759094,
					-0.20273111760616302,
					0.044118911027908325,
					0.15445049107074738,
					0.048185475170612335,
					-0.09223360568284988,
					0.10358606278896332,
					0.2612598240375519,
					0.14510320127010345,
					0.11576349288225174,
					0.18260402977466583,
					0.08096958696842194,
					0.10365819931030273,
					0.06193936616182327,
					0.0041616735979914665,
					0.11897118389606476,
					-0.040860265493392944,
					0.05550699308514595,
					0.10425902903079987,
					0.04946494102478027,
					0.015031492337584496,
					-0.14573059976100922,
					0.12069185823202133,
					0.08724933862686157,
					-0.18888668715953827,
					-0.1647956520318985,
					-0.01163026224821806,
					0.24010026454925537,
					0.15460491180419922,
					0.18660177290439606,
					0.18480195105075836,
					0.5624940395355225,
					0.06748213618993759,
					0.0251914095133543,
					-0.041788533329963684,
					0.08576048165559769,
					0.18373261392116547,
					0.061270490288734436,
					0.016923937946558,
					-0.01232389360666275,
					-0.11983636021614075,
					-0.15985704958438873,
					-0.12264352291822433,
					-0.00047516243648715317,
					-0.08920250087976456,
					-0.0724920779466629,
					0.041533924639225006,
					-0.3393126428127289,
					-0.3134365975856781,
					-0.06997506320476532,
					-0.10022249817848206,
					-0.0929800495505333
				],
				[
					-0.14654727280139923,
					-0.03378738835453987,
					-0.08461081981658936,
					-0.06214151158928871,
					-0.08240677416324615,
					0.016914205625653267,
					-0.00988773163408041,
					-0.02719314768910408,
					-0.05425196513533592,
					-0.09538350254297256,
					0.07627149671316147,
					0.007382138632237911,
					0.03738091513514519,
					0.023353682830929756,
					0.05106726288795471,
					0.08154328912496567,
					0.12541081011295319,
					0.1095144972205162,
					0.05536191537976265,
					0.09702324122190475,
					0.202058807015419,
					0.1449790596961975,
					-0.007389656268060207,
					-0.21035198867321014,
					-0.06535084545612335,
					0.11170974373817444,
					0.14068619906902313,
					0.19061267375946045,
					-0.059286486357450485,
					0.0660908967256546,
					-0.07471083104610443,
					0.013709301128983498,
					-0.029238171875476837,
					-0.1412997543811798,
					0.044968459755182266,
					-0.06861017644405365,
					-0.05718250945210457,
					-0.08698581904172897,
					-0.19392332434654236,
					-0.0959416851401329,
					-0.07666147500276566,
					-0.1947070062160492,
					-0.17116370797157288,
					-0.07828298956155777,
					-0.06255184859037399,
					-0.03583407774567604,
					0.005490454845130444,
					-0.063481405377388,
					-0.06492207944393158,
					0.05247965082526207,
					-0.10207588225603104,
					-0.09957452118396759,
					-0.07780537754297256,
					-0.06046980246901512,
					0.06256602704524994,
					0.0027125433553010225,
					-0.04263980686664581,
					-0.012901579961180687,
					0.15884451568126678,
					0.2625514566898346,
					-0.04852033406496048,
					0.02764810435473919,
					0.0441458560526371,
					0.04822447896003723,
					0.2315056324005127,
					-0.007759207393974066,
					-0.1162051111459732,
					-0.15435972809791565,
					0.04729835316538811,
					0.10836255550384521,
					-0.10959336161613464,
					-0.13673855364322662,
					-0.09084853529930115,
					0.00472762668505311,
					-0.006169648841023445,
					-0.04717131704092026,
					-0.15948481857776642,
					0.022422539070248604,
					0.17881692945957184,
					0.18085595965385437,
					-0.07679051160812378,
					-0.0013368125073611736,
					0.005344901699572802,
					0.1616004854440689,
					0.3239519000053406,
					-0.11789186298847198,
					-0.17674438655376434,
					-0.11612536758184433,
					0.04140251502394676,
					0.15821875631809235,
					-0.1343611627817154,
					-0.07102742791175842,
					-0.08177895098924637,
					-0.05583443492650986,
					0.05873895063996315,
					-0.1347426027059555,
					-0.12318775802850723,
					-0.3066684603691101,
					-0.16162435710430145,
					-0.10169440507888794,
					-0.19313699007034302,
					-0.10515356808900833,
					-0.02029290795326233,
					-0.0372905433177948,
					0.07688067853450775,
					-0.09848400950431824,
					-0.14339372515678406,
					-0.1320364624261856,
					-0.07241691648960114,
					-0.05256080627441406,
					0.025765644386410713,
					0.03133923187851906,
					0.010679061524569988,
					-0.0868639200925827,
					-0.039524804800748825,
					0.13062508404254913,
					0.10615874826908112,
					0.046324025839567184,
					-0.03424791991710663,
					0.015241166576743126,
					0.01875326782464981,
					-0.04840024933218956,
					-0.03725343942642212,
					-0.18148918449878693,
					-0.16458187997341156,
					-0.0022255664225667715,
					0.00508791534230113,
					-0.09413233399391174,
					-0.0581895150244236,
					0.08134030550718307,
					0.0031618771608918905,
					-0.08297544717788696,
					-0.16664128005504608,
					-0.14337827265262604,
					0.09655015170574188,
					0.018895499408245087,
					-0.09871950000524521,
					-0.09841115772724152,
					-0.20977655053138733,
					0.09246557205915451,
					-0.10872101038694382,
					-0.030346138402819633,
					-0.014392220415174961,
					-0.12423188984394073,
					0.2171626091003418,
					-0.09685637056827545,
					-0.11602037400007248,
					0.003727962728589773,
					-0.07023823261260986,
					0.21357981860637665,
					0.007777753286063671,
					0.03046039119362831,
					-0.056578610092401505,
					-0.0008715261938050389,
					0.022763391956686974,
					-0.027529098093509674,
					-0.03695913404226303,
					-0.10430373251438141,
					-0.10727604478597641,
					-0.02247779257595539,
					-0.08148737251758575,
					-0.11079112440347672,
					-0.11716309934854507,
					-0.24575795233249664,
					-0.18995848298072815,
					-0.14533878862857819,
					-0.08462817221879959,
					-0.09250330924987793,
					-0.23168131709098816,
					0.01210577879101038,
					-0.15275052189826965,
					-0.026337813585996628,
					-0.1663912832736969,
					-0.07734903693199158,
					0.040131185203790665,
					-0.1809910386800766,
					-0.049481119960546494,
					0.06830152869224548,
					0.17899389564990997,
					0.1463979333639145,
					-0.11866961419582367,
					-0.12986941635608673,
					0.059762921184301376,
					0.09813874959945679,
					-0.11722471565008163,
					-0.01332040410488844,
					-0.16881783306598663,
					-0.16270564496517181,
					0.2060135453939438,
					0.14233140647411346,
					-0.1445736289024353,
					-0.058921098709106445,
					-0.01638868637382984,
					0.15056592226028442,
					0.1665581464767456,
					-0.20992036163806915,
					-0.11844488233327866,
					-0.1844148486852646,
					0.1370091289281845,
					0.16639851033687592,
					-0.19871076941490173,
					-0.10586533695459366,
					-0.1895011067390442,
					0.08496071398258209,
					-0.045822471380233765,
					-0.09699377417564392,
					-0.004377727396786213,
					0.09723800420761108,
					-0.004891307558864355,
					-0.13152006268501282,
					0.1283881664276123,
					0.2210451066493988,
					0.0924948900938034,
					0.019133267924189568,
					0.020341312512755394,
					0.05154081806540489,
					0.21561135351657867,
					-0.008777023293077946,
					-0.0697997659444809,
					0.043239202350378036,
					0.15254300832748413,
					0.03467220813035965,
					-0.04682423546910286,
					0.14785727858543396,
					0.3025301992893219,
					-0.21312513947486877,
					-0.052470386028289795,
					-0.10884708166122437,
					-0.1991649866104126,
					-0.21111518144607544,
					-0.16274772584438324,
					0.013095741160213947,
					0.04775651916861534,
					-0.008145639672875404,
					-0.22865986824035645,
					0.04370930790901184,
					0.038734789937734604,
					0.042328350245952606,
					-0.08491368591785431,
					-0.2793021500110626,
					-0.048230234533548355,
					-0.06961552798748016,
					-0.1661551594734192,
					-0.08045978844165802,
					-0.015515527687966824,
					-0.07815688848495483,
					-0.1406306028366089,
					-0.27841344475746155,
					-0.19299982488155365,
					-0.022070426493883133
				],
				[
					0.15815909206867218,
					0.09956102073192596,
					-0.048003777861595154,
					-0.03621858358383179,
					0.024563685059547424,
					0.05906574800610542,
					-0.04172205924987793,
					-0.11825837939977646,
					-0.03252574801445007,
					-0.0984659343957901,
					-0.07397489994764328,
					-0.03439507633447647,
					-0.1166602298617363,
					-0.06611564010381699,
					-0.16039183735847473,
					-0.051458653062582016,
					0.07061562687158585,
					-0.15819552540779114,
					-0.101633720099926,
					-0.2517889440059662,
					0.032157909125089645,
					-0.19311100244522095,
					-0.16135461628437042,
					-0.05247601494193077,
					-0.1097666546702385,
					-0.14920750260353088,
					-0.20680047571659088,
					0.08570989221334457,
					0.02809467725455761,
					0.03887014463543892,
					0.034271955490112305,
					-0.0955953598022461,
					0.06592251360416412,
					-0.030292896553874016,
					-0.08356612920761108,
					-0.11593642085790634,
					0.0034294361248612404,
					0.06880248337984085,
					-0.05466947704553604,
					-0.16773056983947754,
					0.11071193218231201,
					0.09056349843740463,
					-0.04277656227350235,
					0.06458321213722229,
					-0.0475766658782959,
					0.031810883432626724,
					0.09752604365348816,
					0.06952030211687088,
					0.0693664476275444,
					-0.08750413358211517,
					-0.018417367711663246,
					-0.15191663801670074,
					-0.2296200394630432,
					-0.09808859974145889,
					0.05629872530698776,
					-0.05744793638586998,
					-0.0319630429148674,
					-0.07017653435468674,
					0.10149514675140381,
					0.19087223708629608,
					0.13899250328540802,
					-0.025999106466770172,
					-0.04032051935791969,
					0.028992602601647377,
					0.08860988914966583,
					0.09273874759674072,
					0.0287178922444582,
					-0.05981308966875076,
					0.05133163928985596,
					0.044641461223363876,
					0.019635554403066635,
					-0.06081400439143181,
					0.03231342136859894,
					-0.12286820262670517,
					0.13248339295387268,
					-0.12714330852031708,
					-0.32614773511886597,
					-0.3606831133365631,
					-0.22482293844223022,
					0.04879090562462807,
					0.009645631536841393,
					-0.030254073441028595,
					-0.16353636980056763,
					0.0020511483307927847,
					0.18250098824501038,
					0.2295646369457245,
					0.04417677968740463,
					-0.03299533203244209,
					0.031729698181152344,
					0.1454640030860901,
					0.2898646295070648,
					0.0929587185382843,
					0.057805683463811874,
					-0.03038932755589485,
					0.09062907844781876,
					0.0860058069229126,
					0.1416867971420288,
					-0.05131613463163376,
					0.0026569473557174206,
					0.020613331347703934,
					-0.029462618753314018,
					-0.26514434814453125,
					-0.14345557987689972,
					-0.13847602903842926,
					-0.15564598143100739,
					-0.01817767694592476,
					-0.128148153424263,
					-0.32602789998054504,
					-0.17679618299007416,
					-0.12113557755947113,
					-0.11836226284503937,
					-0.009758278727531433,
					-0.014005202800035477,
					-0.19546100497245789,
					-0.130094975233078,
					-0.08992905169725418,
					-0.03841915354132652,
					-0.1339559257030487,
					-0.1267317682504654,
					-0.051281824707984924,
					0.09923132508993149,
					0.01477520540356636,
					-0.03403579443693161,
					-0.1566370725631714,
					0.076797254383564,
					0.238584965467453,
					0.22176072001457214,
					-0.004560261964797974,
					-0.03605007007718086,
					0.5931628346443176,
					-0.006002524867653847,
					-0.0007177977822721004,
					-0.016657182946801186,
					0.05281079187989235,
					0.1252860128879547,
					-0.06401322036981583,
					-0.17625002562999725,
					-0.08124804496765137,
					0.033662933856248856,
					0.10398916900157928,
					-0.272785484790802,
					-0.15483003854751587,
					-0.08369231224060059,
					-0.13285741209983826,
					0.05371754989027977,
					-0.1647842824459076,
					-0.1427452117204666,
					-0.10554642230272293,
					-0.25822412967681885,
					-0.002339515835046768,
					-0.06031195819377899,
					-0.013288632035255432,
					0.02101144567131996,
					0.02368660271167755,
					0.07471174001693726,
					0.009121379815042019,
					0.08926514536142349,
					0.12463616579771042,
					-0.019519150257110596,
					-0.022362157702445984,
					0.025030361488461494,
					0.07341744750738144,
					0.08634056150913239,
					-0.07282344996929169,
					-0.0034105631057173014,
					0.1523820459842682,
					-0.06005621328949928,
					-0.06942614167928696,
					0.04983493685722351,
					0.1861800104379654,
					0.1355152428150177,
					0.13882116973400116,
					0.0314498171210289,
					-0.005139561370015144,
					0.17407464981079102,
					-0.1809062361717224,
					0.01339779980480671,
					0.2981897294521332,
					0.42374834418296814,
					0.08686141669750214,
					-0.13153038918972015,
					-0.018281567841768265,
					0.11798612028360367,
					0.1458483636379242,
					0.4397442042827606,
					-0.06438490003347397,
					-0.045342907309532166,
					-0.0343058742582798,
					0.10205349326133728,
					0.3694676160812378,
					-0.0519166924059391,
					-0.2765047550201416,
					-0.15122383832931519,
					0.0027373649645596743,
					0.23352864384651184,
					-0.13239434361457825,
					-0.26924148201942444,
					-0.1594720184803009,
					-0.039863575249910355,
					0.12481878697872162,
					-0.19393882155418396,
					-0.12280532717704773,
					-0.08741526305675507,
					0.1842726320028305,
					0.035427287220954895,
					-0.16232694685459137,
					-0.1426265686750412,
					-0.04666167125105858,
					0.007767314091324806,
					-0.010849099606275558,
					-0.2056940495967865,
					-0.1912219077348709,
					-0.1183558776974678,
					-0.2123439908027649,
					-0.06512217223644257,
					-0.182333841919899,
					-0.10208699852228165,
					-0.21692146360874176,
					-0.1647098958492279,
					0.009108551777899265,
					0.008237501606345177,
					0.05686167627573013,
					-0.12821687757968903,
					-0.07793910801410675,
					-0.048841990530490875,
					0.0159069262444973,
					-0.06969542801380157,
					-0.24121206998825073,
					-0.41045239567756653,
					-0.27379095554351807,
					0.126395583152771,
					0.07560718059539795,
					-0.03840823099017143,
					-0.11605602502822876,
					-0.37979915738105774,
					-0.04719370976090431,
					0.037057168781757355,
					-0.031655117869377136,
					-0.12698867917060852,
					-0.40819355845451355,
					0.10980521142482758,
					0.16967102885246277,
					0.192999467253685,
					0.14450861513614655,
					-0.1083618625998497,
					0.22301527857780457,
					0.04318482056260109,
					0.10373913496732712,
					-0.03183563053607941,
					-0.08420383185148239
				],
				[
					-0.04466758668422699,
					-0.006915188394486904,
					0.02125493250787258,
					-0.1783040165901184,
					-0.06747904419898987,
					-0.08117153495550156,
					-0.026154637336730957,
					-0.1609252393245697,
					-0.11125944554805756,
					-0.08056962490081787,
					0.016988353803753853,
					0.006507253274321556,
					0.05352768674492836,
					0.005249068606644869,
					-0.09293106943368912,
					0.00593346543610096,
					0.07545334100723267,
					-0.04838572442531586,
					0.09288307279348373,
					-0.09917305409908295,
					-0.14856909215450287,
					-0.1717342734336853,
					0.037444546818733215,
					-0.051370762288570404,
					0.06773003190755844,
					-0.07459963858127594,
					-0.027426911517977715,
					0.2166185826063156,
					0.12546513974666595,
					0.1154622808098793,
					-0.24872379004955292,
					-0.014778311364352703,
					0.06920928508043289,
					0.20689846575260162,
					0.14420188963413239,
					-0.2643648386001587,
					-0.10349525511264801,
					-0.153865784406662,
					-0.013994617387652397,
					-0.06750383973121643,
					-0.0798446536064148,
					-0.1748635321855545,
					-0.1059059128165245,
					-0.07378458231687546,
					-0.16814395785331726,
					0.2074132263660431,
					-0.012655350379645824,
					-0.05617357790470123,
					-0.05582670494914055,
					0.013776028528809547,
					-0.09262359142303467,
					-0.17038556933403015,
					-0.08130675554275513,
					0.01844329945743084,
					-0.11721481382846832,
					-0.024788357317447662,
					-0.04851612448692322,
					-0.05605578050017357,
					-0.13905635476112366,
					-0.20667476952075958,
					-0.13043785095214844,
					-0.10269403457641602,
					-0.2301642894744873,
					-0.09045930206775665,
					-0.2529842257499695,
					-0.21021316945552826,
					-0.0012700154911726713,
					0.06714357435703278,
					-0.1002962738275528,
					-0.04866768792271614,
					0.04409346356987953,
					0.01510743796825409,
					0.1405787467956543,
					0.1688506156206131,
					0.08073559403419495,
					-0.15256278216838837,
					0.004357762169092894,
					0.14328829944133759,
					0.07138146460056305,
					0.16757459938526154,
					-0.18657490611076355,
					-0.029792048037052155,
					-0.09405063092708588,
					0.11527741700410843,
					-0.1221601814031601,
					-0.4643279016017914,
					-0.28295791149139404,
					-0.22489610314369202,
					-0.26143208146095276,
					-0.35043561458587646,
					-0.21161825954914093,
					-0.08778656274080276,
					-0.015497280284762383,
					-0.056992825120687485,
					-0.2144835740327835,
					0.2860458195209503,
					0.21411600708961487,
					0.22827036678791046,
					0.09778716415166855,
					0.12393026798963547,
					-0.1786053329706192,
					-0.09202266484498978,
					-0.006149444729089737,
					0.015605754218995571,
					0.146294966340065,
					0.072672538459301,
					0.0052587115205824375,
					0.014998839236795902,
					0.1656941920518875,
					0.10926278680562973,
					0.05081801861524582,
					-0.07408179342746735,
					-0.12239594757556915,
					-0.010801900178194046,
					0.07217715680599213,
					-0.24649856984615326,
					0.043859679251909256,
					-0.025362230837345123,
					0.04212115705013275,
					-0.06170552596449852,
					-0.12532226741313934,
					0.10747762024402618,
					0.014789720997214317,
					0.05444752052426338,
					-0.19118639826774597,
					-0.03515174612402916,
					-0.32644927501678467,
					-0.22211946547031403,
					-0.11501651257276535,
					-0.2535284161567688,
					0.030797645449638367,
					0.009652987122535706,
					-0.20707418024539948,
					-0.19265338778495789,
					-0.31047096848487854,
					0.011648393236100674,
					-0.14647464454174042,
					-0.1654721200466156,
					-0.12859535217285156,
					-0.10535848140716553,
					-0.1197754442691803,
					-0.14093677699565887,
					-0.06458934396505356,
					-0.0843522921204567,
					0.17443886399269104,
					-0.20450365543365479,
					0.07802535593509674,
					-0.05528907850384712,
					0.033085521310567856,
					0.09685337543487549,
					-0.19066931307315826,
					-0.06264493614435196,
					0.2069380283355713,
					0.1304921805858612,
					0.2324022799730301,
					-0.2189437299966812,
					-0.06939667463302612,
					0.18685302138328552,
					0.23886899650096893,
					0.3859831690788269,
					-0.3270373046398163,
					-0.20365892350673676,
					-0.09670206904411316,
					-0.036320216953754425,
					0.014795253984630108,
					-0.1963135302066803,
					-0.19447936117649078,
					-0.23655365407466888,
					-0.16429588198661804,
					-0.1685800403356552,
					-0.09573347866535187,
					0.000683841819409281,
					-0.051735591143369675,
					-0.15451690554618835,
					0.004539855290204287,
					-0.13123691082000732,
					0.11481772363185883,
					0.1701083481311798,
					0.21938875317573547,
					-0.1386706531047821,
					0.021241046488285065,
					0.1146630272269249,
					0.175011545419693,
					0.016878755763173103,
					-0.08062873035669327,
					0.04193858057260513,
					0.012922822497785091,
					-0.06429948657751083,
					-0.13490238785743713,
					-0.30211934447288513,
					-0.2642758786678314,
					-0.215880885720253,
					-0.2770056128501892,
					-0.30445730686187744,
					-0.27562323212623596,
					-0.09136589616537094,
					-0.10975288599729538,
					-0.13144047558307648,
					0.04002753645181656,
					0.02517918311059475,
					-0.04267944023013115,
					-0.08095536381006241,
					-0.11358527839183807,
					-0.05644954368472099,
					-0.0020513480994850397,
					0.17274387180805206,
					0.10400573909282684,
					0.06210285797715187,
					0.09603847563266754,
					-0.02600245736539364,
					0.10953173786401749,
					0.15567032992839813,
					0.10428488999605179,
					-0.01859334483742714,
					-0.2668752074241638,
					-0.060269735753536224,
					-0.2260623574256897,
					0.0058432407677173615,
					-0.08798327296972275,
					-0.17282634973526,
					-0.28089460730552673,
					-0.2462751716375351,
					-0.12416106462478638,
					-0.10372207313776016,
					-0.09423822909593582,
					0.0371035560965538,
					0.12803320586681366,
					0.16968491673469543,
					0.13480515778064728,
					-0.31395789980888367,
					-0.1415511667728424,
					-0.0796508640050888,
					-0.07890857011079788,
					-0.1692214161157608,
					-0.2866385579109192,
					-0.08914001286029816,
					-0.023335183039307594,
					0.028422340750694275,
					0.18960028886795044,
					0.027140745893120766,
					0.25628072023391724,
					0.09518226981163025,
					0.04424985498189926,
					0.136335551738739,
					0.08392035216093063,
					0.1595326066017151,
					0.1444942057132721,
					0.030292943120002747,
					0.07934028655290604,
					0.17958973348140717
				],
				[
					0.011355902068316936,
					0.0736301988363266,
					0.05780218541622162,
					0.17738863825798035,
					-0.0005901877302676439,
					-0.0494115874171257,
					0.06783284991979599,
					0.2697155773639679,
					-0.01696520857512951,
					0.09009793400764465,
					-0.07205501198768616,
					-0.12573912739753723,
					0.03835098072886467,
					0.04606904461979866,
					0.16124780476093292,
					-0.20014461874961853,
					-0.07408049702644348,
					-0.013498270884156227,
					-0.005122184753417969,
					-0.011109109036624432,
					-0.09206091612577438,
					0.024494610726833344,
					-0.12302443385124207,
					-0.15409685671329498,
					-0.26243501901626587,
					0.0016076501924544573,
					0.06547601521015167,
					-0.1398104727268219,
					-0.08927837759256363,
					-0.24086835980415344,
					-0.08370035886764526,
					-0.28627660870552063,
					-0.3226311206817627,
					-0.2174989879131317,
					-0.2517055571079254,
					-0.011190928518772125,
					-0.1637285053730011,
					-0.08858245611190796,
					-0.30957141518592834,
					-0.3971094787120819,
					0.2195495069026947,
					0.11912049353122711,
					0.17350322008132935,
					0.19891123473644257,
					-0.2108946144580841,
					0.1610335111618042,
					0.3503876030445099,
					0.40875008702278137,
					0.25678735971450806,
					0.23584119975566864,
					0.26267051696777344,
					0.04458077624440193,
					-0.22308562695980072,
					-0.1816779226064682,
					-0.2762584388256073,
					-0.044928040355443954,
					0.026675444096326828,
					-0.036720920354127884,
					-0.034691222012043,
					-0.11984344571828842,
					0.07141464948654175,
					0.0049512507393956184,
					-0.0019419180462136865,
					0.0023897099308669567,
					0.05756307765841484,
					-0.0223319623619318,
					-0.07467873394489288,
					0.09441812336444855,
					0.0534861758351326,
					0.19240671396255493,
					0.16184599697589874,
					0.018894745036959648,
					0.15680557489395142,
					-0.07327956706285477,
					0.029594147577881813,
					0.11930597573518753,
					-0.04888148233294487,
					-0.1574014276266098,
					-0.3466404378414154,
					-0.309629887342453,
					0.2766435444355011,
					0.048166871070861816,
					-0.06390117108821869,
					-0.20726841688156128,
					-0.4027830958366394,
					0.1341327279806137,
					0.09593944251537323,
					-0.012776613235473633,
					0.0066324700601398945,
					-0.1248687207698822,
					0.22838573157787323,
					0.046881821006536484,
					0.03978114575147629,
					-0.07836052030324936,
					-0.0015509543009102345,
					0.17864233255386353,
					0.14693725109100342,
					0.05841989442706108,
					0.07653914391994476,
					0.1045864149928093,
					-0.07309731096029282,
					-0.032553333789110184,
					-0.07745176553726196,
					-0.05867874249815941,
					0.011051836423575878,
					0.17161229252815247,
					0.011273087933659554,
					-0.0031632878817617893,
					-0.04685375466942787,
					-0.20001950860023499,
					0.06487331539392471,
					0.08735791593790054,
					-0.05121755227446556,
					-0.13588181138038635,
					-0.16036346554756165,
					0.060956597328186035,
					0.12009502202272415,
					-0.03650800138711929,
					-0.12885314226150513,
					-0.20839108526706696,
					-0.144426167011261,
					-0.007097294088453054,
					-0.03162391856312752,
					-0.06666766107082367,
					-0.08247683942317963,
					-0.07642655074596405,
					-0.052623480558395386,
					-0.020503602921962738,
					-0.12871438264846802,
					-0.016999023035168648,
					-0.11896545439958572,
					0.07568396627902985,
					0.08837664127349854,
					0.22480186820030212,
					0.29893019795417786,
					-0.04625261202454567,
					0.10626918822526932,
					0.2560138404369354,
					0.31302839517593384,
					0.2765369117259979,
					-0.13091862201690674,
					0.08363975584506989,
					-0.011275427415966988,
					0.3291997015476227,
					0.222285196185112,
					0.07037297636270523,
					-0.19893132150173187,
					-0.171979159116745,
					-0.2183489352464676,
					-0.08236371725797653,
					-0.019798243418335915,
					-0.1150711327791214,
					-0.2067035436630249,
					-0.12945601344108582,
					-0.06280014663934708,
					-0.13395380973815918,
					-0.19680745899677277,
					-0.24494382739067078,
					-0.14083489775657654,
					-0.27001988887786865,
					-0.14085489511489868,
					-0.06025867164134979,
					-0.04158758372068405,
					-0.058959171175956726,
					-0.13786861300468445,
					-0.07146898657083511,
					0.1505884975194931,
					0.22975336015224457,
					0.012092545628547668,
					-0.023233460262417793,
					-0.11561387777328491,
					0.188430517911911,
					0.14143557846546173,
					0.05032263323664665,
					-0.08397821336984634,
					-0.23618833720684052,
					-0.3602835536003113,
					-0.3211769759654999,
					-0.2525588274002075,
					-0.26099637150764465,
					-0.08446989953517914,
					-0.2789839506149292,
					-0.27900776267051697,
					-0.30433839559555054,
					-0.3788871765136719,
					-0.057094525545835495,
					-0.04863840341567993,
					-0.18457669019699097,
					-0.22973446547985077,
					-0.11135793477296829,
					-0.00012725108535960317,
					0.037314239889383316,
					0.19455549120903015,
					0.1139446571469307,
					0.11063043028116226,
					0.0716758593916893,
					-0.010775450617074966,
					-0.15435919165611267,
					-0.02118145301938057,
					0.2865639328956604,
					-0.13107338547706604,
					-0.049161408096551895,
					-0.13512679934501648,
					-0.032511916011571884,
					0.04990054666996002,
					0.1672409027814865,
					-0.019174741581082344,
					0.0016312205698341131,
					-0.03450140357017517,
					-0.07937838137149811,
					-0.036446526646614075,
					-0.09929457306861877,
					-0.00020457114442251623,
					0.061919890344142914,
					-0.18066538870334625,
					-0.14672213792800903,
					-0.09014474600553513,
					-0.11342458426952362,
					-0.13481466472148895,
					-0.11237454414367676,
					-0.14867432415485382,
					-0.16441385447978973,
					-0.25076135993003845,
					-0.15917402505874634,
					0.03560171276330948,
					0.1530722826719284,
					0.16857896745204926,
					0.08276286721229553,
					0.12683574855327606,
					-0.2013995349407196,
					0.09834834188222885,
					0.05683588236570358,
					-0.005649426952004433,
					0.1549791693687439,
					0.03545680642127991,
					0.05007118359208107,
					0.2549307644367218,
					0.04371248185634613,
					-0.014629104174673557,
					0.11092940717935562,
					-0.16680842638015747,
					-0.17327475547790527,
					-0.07174235582351685,
					-0.24798113107681274,
					-0.1594141572713852,
					0.15884347259998322,
					0.23750925064086914,
					0.07583311945199966,
					-0.03750725835561752,
					-0.14446507394313812
				],
				[
					-0.16826216876506805,
					-0.075804702937603,
					-0.0008846480050124228,
					-0.04720939323306084,
					-0.03819487243890762,
					-0.08095765858888626,
					-0.014234754256904125,
					-0.09351161867380142,
					-0.11920098960399628,
					-0.029322214424610138,
					-0.028969770297408104,
					0.0499831885099411,
					-0.05959872528910637,
					-0.03258325532078743,
					-0.12324145436286926,
					-0.07605043798685074,
					0.01824045367538929,
					0.0003672706661745906,
					0.016869649291038513,
					-0.05927498638629913,
					-0.06772547960281372,
					0.01228256430476904,
					-0.04069032147526741,
					0.05979794263839722,
					-0.036139048635959625,
					-0.030427267774939537,
					-0.08531487733125687,
					0.0196370929479599,
					0.010251783765852451,
					0.1381651610136032,
					-0.04289807006716728,
					0.08785343170166016,
					0.14368918538093567,
					-0.06789015233516693,
					0.09613917022943497,
					-0.06620209664106369,
					-0.06531987339258194,
					0.04779952019453049,
					-0.009386150166392326,
					0.1822321116924286,
					0.012624713592231274,
					0.15152737498283386,
					-0.05317884683609009,
					0.06137103959918022,
					-0.05459333211183548,
					-0.11549144238233566,
					0.045338306576013565,
					-0.14101719856262207,
					-0.21330180764198303,
					-0.15839087963104248,
					-0.09753338992595673,
					-0.06864478439092636,
					-0.08716501295566559,
					-0.038782037794589996,
					-0.034406132996082306,
					-0.01743745431303978,
					0.017886478453874588,
					0.10777834802865982,
					-0.05069347843527794,
					0.023059071972966194,
					0.09160727262496948,
					0.04139415919780731,
					-0.003942075185477734,
					-0.07263584434986115,
					-0.10735288262367249,
					0.0028875337447971106,
					0.008250349201261997,
					-0.07968773692846298,
					-0.08695448935031891,
					-0.10116807371377945,
					0.03837580606341362,
					-0.04664536193013191,
					-0.07727598398923874,
					-0.012100577354431152,
					-0.14501938223838806,
					-0.1000339463353157,
					-0.06250187754631042,
					-0.15983670949935913,
					-0.07132945209741592,
					-0.027316099032759666,
					0.015798086300492287,
					0.06177977845072746,
					0.07937048375606537,
					-0.012615700252354145,
					-0.0065668122842907906,
					-0.02436245232820511,
					0.002624715678393841,
					-0.006387213245034218,
					-0.03722439333796501,
					0.017670441418886185,
					0.15917982161045074,
					0.14388293027877808,
					0.05845436453819275,
					0.10716582089662552,
					-0.0408547967672348,
					0.049365416169166565,
					-0.0669313445687294,
					-0.1808026134967804,
					-0.019930340349674225,
					-0.1427660584449768,
					-0.046370673924684525,
					-0.105326808989048,
					-0.12699773907661438,
					-0.04877709969878197,
					0.005167745519429445,
					-0.06526527553796768,
					-0.06667305529117584,
					-0.06625791639089584,
					-0.01348477229475975,
					0.06730347871780396,
					-0.16620752215385437,
					-0.14964213967323303,
					-0.01641680859029293,
					0.012075499631464481,
					0.008248614147305489,
					-0.06059737130999565,
					-0.040544476360082626,
					0.12462891638278961,
					0.11172182112932205,
					0.10092479735612869,
					-0.017390040680766106,
					0.18128614127635956,
					0.12083146721124649,
					0.020922543480992317,
					-0.02081625908613205,
					0.019476452842354774,
					0.08729155361652374,
					0.05657309293746948,
					-0.1890011578798294,
					-0.0997883677482605,
					0.025184372439980507,
					0.04427455738186836,
					0.05471574515104294,
					0.0032629184424877167,
					0.06341841071844101,
					-0.11043935269117355,
					-0.040992237627506256,
					0.0407341904938221,
					-0.1160174012184143,
					-0.13909855484962463,
					-0.04467114433646202,
					-0.03820917382836342,
					-0.18481852114200592,
					-0.08724609762430191,
					-0.0469074584543705,
					-0.10631521046161652,
					-0.08536922931671143,
					-0.10401264578104019,
					-0.18757975101470947,
					-0.0911383107304573,
					0.10151727497577667,
					0.17480339109897614,
					0.11138524115085602,
					0.00002296507591381669,
					0.02445659041404724,
					0.18950343132019043,
					-0.04207303002476692,
					0.1342565268278122,
					0.10390475392341614,
					0.004809035453945398,
					-0.09096803516149521,
					-0.06327468156814575,
					-0.00077002530451864,
					0.04427346959710121,
					0.0638100877404213,
					0.06830864399671555,
					-0.0459398590028286,
					0.01712162420153618,
					0.08424810320138931,
					0.08712047338485718,
					0.017643015831708908,
					0.2276628166437149,
					0.05691864341497421,
					0.004849347285926342,
					-0.12630711495876312,
					0.06360377371311188,
					0.13917115330696106,
					-0.03296101093292236,
					0.07411302626132965,
					-0.03843181952834129,
					-0.14381031692028046,
					0.09019900858402252,
					-0.09129025042057037,
					0.023298034444451332,
					-0.04639459028840065,
					-0.058883748948574066,
					-0.012141465209424496,
					-0.05671348795294762,
					-0.12532363831996918,
					-0.13993850350379944,
					-0.17788644134998322,
					-0.09067386388778687,
					-0.17259755730628967,
					-0.14695753157138824,
					-0.2443585842847824,
					-0.11906041204929352,
					-0.19787442684173584,
					-0.16374164819717407,
					-0.277565062046051,
					-0.10925588756799698,
					-0.03183213248848915,
					0.011201231740415096,
					-0.04571114480495453,
					-0.047239404171705246,
					-0.14344032108783722,
					-0.19636237621307373,
					-0.10192989557981491,
					0.036130595952272415,
					0.057673025876283646,
					-0.028774816542863846,
					-0.06804097443819046,
					-0.07739556580781937,
					0.04471365734934807,
					-0.0550047941505909,
					0.06968218833208084,
					-0.10436322540044785,
					-0.016513673588633537,
					-0.004758529365062714,
					0.006542640272527933,
					-0.1306723952293396,
					0.016748793423175812,
					0.07520344108343124,
					0.02851783111691475,
					-0.07149825990200043,
					-0.1701020449399948,
					-0.10983870178461075,
					-0.18648658692836761,
					0.007700623944401741,
					-0.006019395776093006,
					0.05381868779659271,
					0.07597671449184418,
					0.16481874883174896,
					0.039459794759750366,
					0.04335840418934822,
					0.07735325396060944,
					0.15764889121055603,
					0.09239762276411057,
					0.042611949145793915,
					-0.03822753205895424,
					-0.03631839156150818,
					-0.023719744756817818,
					0.03592230752110481,
					-0.04517974331974983,
					-0.154136061668396,
					-0.05547446012496948,
					0.06228388845920563,
					-0.0885646715760231,
					-0.04359503835439682,
					-0.15563638508319855,
					-0.11849064379930496
				],
				[
					0.01698748767375946,
					0.03476403281092644,
					-0.06908131390810013,
					-0.04900885745882988,
					0.07161926478147507,
					0.07187845557928085,
					-0.1036854237318039,
					-0.2900081276893616,
					-0.10424227267503738,
					-0.06465156376361847,
					-0.2534277141094208,
					-0.19334684312343597,
					-0.32734575867652893,
					-0.11264138668775558,
					-0.06529797613620758,
					-0.38238853216171265,
					-0.18291440606117249,
					-0.266451895236969,
					-0.3477668762207031,
					-0.1451800912618637,
					-0.2456451654434204,
					-0.07387351244688034,
					-0.1834162175655365,
					-0.29678621888160706,
					-0.1933683454990387,
					-0.020495204254984856,
					0.049410633742809296,
					0.04875714331865311,
					-0.018549304455518723,
					0.048189427703619,
					0.16191276907920837,
					0.0927731841802597,
					0.04211723431944847,
					0.01063502486795187,
					0.21281270682811737,
					0.17885303497314453,
					0.09012987464666367,
					0.24068908393383026,
					0.22845236957073212,
					0.24654029309749603,
					0.07977576553821564,
					0.07008896768093109,
					0.1806638538837433,
					0.2551378011703491,
					0.12314554303884506,
					0.06492042541503906,
					-0.10534614324569702,
					-0.014423849061131477,
					0.06604348123073578,
					0.17346243560314178,
					-0.13163378834724426,
					-0.2715223431587219,
					-0.20231099426746368,
					-0.12713316082954407,
					-0.3118612766265869,
					-0.06569202989339828,
					-0.19058537483215332,
					-0.22307097911834717,
					-0.22199252247810364,
					-0.18969811499118805,
					0.009691150858998299,
					-0.04381699115037918,
					-0.046114590018987656,
					-0.14645542204380035,
					0.011561483144760132,
					-0.010891790501773357,
					0.07412742078304291,
					0.15802162885665894,
					0.05582977458834648,
					0.022129829972982407,
					0.4799945652484894,
					0.41621726751327515,
					0.3004406690597534,
					0.2255258411169052,
					0.08092422783374786,
					-0.3936317265033722,
					-0.17351217567920685,
					-0.1421312540769577,
					-0.1641240268945694,
					-0.14856575429439545,
					-0.12691231071949005,
					-0.09019806981086731,
					-0.016670921817421913,
					-0.012799006886780262,
					-0.17505954205989838,
					-0.05984426289796829,
					0.10027696192264557,
					-0.10654803365468979,
					-0.17123281955718994,
					-0.046176448464393616,
					0.22910214960575104,
					0.16690731048583984,
					0.1963716298341751,
					0.1244419664144516,
					0.08372804522514343,
					0.4373854398727417,
					0.09346388280391693,
					0.04106362164020538,
					0.226981982588768,
					0.07252718508243561,
					-0.11024067550897598,
					-0.03672216460108757,
					-0.16788065433502197,
					-0.03520655259490013,
					-0.04680981487035751,
					-0.22878456115722656,
					-0.044404808431863785,
					-0.12804074585437775,
					-0.04923587292432785,
					-0.18758058547973633,
					-0.2548845112323761,
					-0.0512298047542572,
					-0.023530760779976845,
					-0.0882582813501358,
					-0.018084047362208366,
					-0.24897126853466034,
					-0.07796379178762436,
					-0.009908786974847317,
					-0.06629607081413269,
					0.04569843411445618,
					-0.3215736448764801,
					-0.2083865851163864,
					-0.19357554614543915,
					-0.0068955374881625175,
					0.03499453887343407,
					0.04886649176478386,
					-0.09033433347940445,
					-0.03744025155901909,
					0.08642478287220001,
					0.058715954422950745,
					-0.03660457581281662,
					-0.09832346439361572,
					0.07841219753026962,
					0.07781830430030823,
					0.05191715434193611,
					-0.1331510990858078,
					-0.224627286195755,
					0.03015855699777603,
					0.05771854147315025,
					-0.004608131945133209,
					0.03764085844159126,
					0.13350842893123627,
					0.01933124288916588,
					0.15830838680267334,
					0.019473237916827202,
					0.4370569586753845,
					0.2581905424594879,
					0.06730673462152481,
					0.015136637724936008,
					0.142556831240654,
					-0.011099589988589287,
					0.12378919869661331,
					0.07095523178577423,
					0.04143257066607475,
					-0.001767160021699965,
					0.15171830356121063,
					-0.0032621086575090885,
					0.0028320823330432177,
					0.13613295555114746,
					0.0109048280864954,
					0.2473614364862442,
					0.06497102230787277,
					-0.03685370087623596,
					-0.016415348276495934,
					0.13020284473896027,
					0.25335419178009033,
					0.20331622660160065,
					-0.2191530466079712,
					-0.10437959432601929,
					-0.00532231479883194,
					-0.06160173565149307,
					-0.43408191204071045,
					-0.47057121992111206,
					-0.3054930567741394,
					0.058938343077898026,
					-0.12954945862293243,
					-0.05474012717604637,
					-0.15185722708702087,
					-0.18406659364700317,
					-0.24059166014194489,
					0.1209048181772232,
					-0.11100395768880844,
					-0.12587587535381317,
					-0.09327876567840576,
					0.001516603515483439,
					0.19903497397899628,
					-0.18792292475700378,
					-0.13605110347270966,
					-0.11312457919120789,
					0.034074023365974426,
					0.30263930559158325,
					-0.1089085042476654,
					-0.12629950046539307,
					-0.0228709913790226,
					-0.009958112612366676,
					0.10779646784067154,
					-0.09438663721084595,
					-0.06657908856868744,
					-0.09281445294618607,
					0.10431932657957077,
					-0.2367841601371765,
					-0.13466739654541016,
					-0.21583351492881775,
					-0.06502657383680344,
					-0.021079981699585915,
					-0.25633862614631653,
					-0.09728823602199554,
					-0.19321082532405853,
					-0.09551750868558884,
					-0.028785059228539467,
					-0.2879042327404022,
					-0.171596959233284,
					-0.22593453526496887,
					-0.06936854869127274,
					-0.06396827101707458,
					-0.4580480456352234,
					-0.31354188919067383,
					-0.2618103623390198,
					-0.1319734752178192,
					-0.07886303961277008,
					0.004847345873713493,
					0.16077378392219543,
					0.01298592146486044,
					-0.04431244358420372,
					0.15277428925037384,
					0.03297246992588043,
					0.02825998142361641,
					0.08200016617774963,
					0.13228696584701538,
					0.1595039814710617,
					-0.012660191394388676,
					0.1062091588973999,
					0.09033843129873276,
					-0.019441796466708183,
					0.0920492634177208,
					-0.13765639066696167,
					-0.08200930804014206,
					0.09889545291662216,
					0.09300191700458527,
					0.09692322462797165,
					-0.3271627426147461,
					-0.4251915514469147,
					-0.18763132393360138,
					-0.06849844008684158,
					0.1517942249774933,
					-0.08684533089399338,
					0.21253588795661926,
					0.4697633981704712,
					0.5454199314117432,
					0.3611665368080139
				],
				[
					0.041884053498506546,
					0.05812229588627815,
					0.06456196308135986,
					0.05044964700937271,
					0.08321596682071686,
					-0.11731773614883423,
					-0.04088518023490906,
					-0.062495358288288116,
					0.014102133922278881,
					0.01219754945486784,
					-0.0765063613653183,
					-0.11124151945114136,
					0.04021470621228218,
					0.16126258671283722,
					0.04570717737078667,
					0.033068105578422546,
					0.002179511357098818,
					0.10291387140750885,
					0.0470130555331707,
					0.06282077729701996,
					0.14132915437221527,
					0.06122506409883499,
					-0.05596448853611946,
					-0.06654441356658936,
					0.0861254408955574,
					-0.06029733642935753,
					-0.038738176226615906,
					-0.008592098020017147,
					0.012206020765006542,
					-0.0044029285199940205,
					0.0284290611743927,
					0.028569815680384636,
					-0.08426274359226227,
					-0.10961178690195084,
					-0.12431050837039948,
					0.15309348702430725,
					0.11978582292795181,
					-0.012212038040161133,
					-0.22094585001468658,
					-0.1453142613172531,
					-0.10804808884859085,
					-0.07222656160593033,
					0.016206251457333565,
					-0.0060341511853039265,
					-0.11838659644126892,
					-0.0944538563489914,
					-0.06805971264839172,
					0.016876578330993652,
					0.07075758278369904,
					-0.11429416388273239,
					-0.17863598465919495,
					0.08729030936956406,
					0.01724260300397873,
					-0.07437125593423843,
					-0.23017197847366333,
					-0.12141328305006027,
					0.008960389532148838,
					-0.023708190768957138,
					0.10580737143754959,
					-0.20119555294513702,
					-0.026215918362140656,
					0.17561915516853333,
					0.10544053465127945,
					0.13131609559059143,
					-0.14862535893917084,
					0.13075736165046692,
					0.2128409445285797,
					0.13825488090515137,
					-0.053717393428087234,
					-0.09138885885477066,
					0.055982500314712524,
					0.13462184369564056,
					-0.00358319072984159,
					-0.0058321282267570496,
					-0.0031865581404417753,
					-0.10442769527435303,
					-0.10756330192089081,
					-0.15608687698841095,
					-0.288926899433136,
					-0.27553313970565796,
					0.05327172577381134,
					0.1908901333808899,
					0.008855121210217476,
					-0.20731991529464722,
					-0.27065974473953247,
					0.04238240793347359,
					0.20613330602645874,
					-0.06711388379335403,
					-0.15810807049274445,
					0.006312809884548187,
					0.05443563684821129,
					-0.031152427196502686,
					0.04877771437168121,
					-0.08850336074829102,
					-0.22076649963855743,
					0.060731932520866394,
					-0.02483709529042244,
					0.09921528398990631,
					-0.08459927886724472,
					-0.06430668383836746,
					-0.2997644543647766,
					-0.27464058995246887,
					-0.17577603459358215,
					-0.2611624598503113,
					-0.10238901525735855,
					-0.14464566111564636,
					-0.11461720615625381,
					0.024675119668245316,
					-0.06458223611116409,
					-0.13321855664253235,
					-0.194711834192276,
					0.0463147796690464,
					-0.06548069417476654,
					-0.08264077454805374,
					-0.06843989342451096,
					-0.10730919986963272,
					-0.1807120144367218,
					-0.10503114759922028,
					0.010237782262265682,
					-0.03840773552656174,
					-0.058276109397411346,
					-0.0772678330540657,
					-0.1293245553970337,
					0.047459717839956284,
					-0.128263458609581,
					0.198699951171875,
					0.3655898869037628,
					0.12446936219930649,
					-0.14192168414592743,
					-0.15836183726787567,
					0.07062425464391708,
					0.30851587653160095,
					0.017687981948256493,
					0.020776940509676933,
					-0.08908329159021378,
					0.04423951357603073,
					0.15734350681304932,
					0.1663518249988556,
					0.07512497901916504,
					0.01907966285943985,
					0.065230593085289,
					0.021541113033890724,
					0.146913543343544,
					0.04285202920436859,
					-0.09558974206447601,
					0.2014123648405075,
					-0.01988459937274456,
					0.025188017636537552,
					0.1424093097448349,
					0.1271681785583496,
					-0.08642056584358215,
					0.15610112249851227,
					0.2994372844696045,
					0.14372701942920685,
					-0.041909098625183105,
					-0.04086671769618988,
					0.2726466953754425,
					0.17726951837539673,
					0.031373944133520126,
					-0.15494045615196228,
					-0.006192865781486034,
					0.22788363695144653,
					-0.005852237343788147,
					0.04116762429475784,
					-0.20165903866291046,
					0.08184780925512314,
					0.025288427248597145,
					-0.050798021256923676,
					0.14090867340564728,
					-0.2537711560726166,
					0.01447151880711317,
					0.21905890107154846,
					0.10249939560890198,
					0.2871963083744049,
					-0.06873635202646255,
					0.2884940505027771,
					0.26196280121803284,
					-0.04301873594522476,
					-0.19350068271160126,
					-0.3716180622577667,
					0.1823330819606781,
					0.11360353976488113,
					-0.02274150215089321,
					-0.27500686049461365,
					-0.18989117443561554,
					0.2158355414867401,
					0.20547565817832947,
					-0.01751856878399849,
					-0.2754160761833191,
					-0.2659655213356018,
					0.06292673200368881,
					0.1781986951828003,
					-0.0986032485961914,
					-0.09481809288263321,
					-0.1535138487815857,
					-0.08888891339302063,
					0.046692777425050735,
					0.18811386823654175,
					0.12464639544487,
					0.25168681144714355,
					-0.3296003043651581,
					-0.06644478440284729,
					-0.07914935052394867,
					-0.2401258796453476,
					-0.2461465299129486,
					-0.20717351138591766,
					0.04751014709472656,
					-0.009064671583473682,
					-0.10003997385501862,
					-0.13253845274448395,
					-0.04846915602684021,
					-0.16792695224285126,
					-0.059064898639917374,
					0.04244526848196983,
					0.08995284885168076,
					-0.00018265709513798356,
					-0.052617061883211136,
					-0.047163233160972595,
					0.000972377136349678,
					0.005589355248957872,
					-0.04945508763194084,
					-0.17925134301185608,
					-0.27616214752197266,
					-0.10821391642093658,
					-0.08858074992895126,
					-0.11825592070817947,
					-0.03877871111035347,
					-0.08227166533470154,
					-0.1888887882232666,
					-0.04545776918530464,
					-0.07616827636957169,
					-0.08126965165138245,
					0.007422569207847118,
					0.04288741201162338,
					0.13438382744789124,
					-0.09361869841814041,
					-0.14564278721809387,
					-0.01271056942641735,
					-0.04534977674484253,
					-0.13588030636310577,
					0.0189178679138422,
					0.01795162260532379,
					-0.17811961472034454,
					-0.14485381543636322,
					-0.2678385078907013,
					-0.03679991513490677,
					0.057765595614910126,
					-0.1546454280614853,
					-0.15441232919692993,
					-0.0987837091088295
				],
				[
					-0.16545969247817993,
					-0.24837015569210052,
					-0.3897556662559509,
					-0.15002726018428802,
					-0.023284072056412697,
					-0.11926642805337906,
					-0.08539193868637085,
					-0.13017289340496063,
					-0.11381062865257263,
					-0.2230464369058609,
					-0.11533864587545395,
					-0.044630277901887894,
					0.14503194391727448,
					0.01633591577410698,
					-0.1649513840675354,
					-0.09735788404941559,
					-0.0806351825594902,
					-0.06222904846072197,
					-0.019939027726650238,
					-0.0038463841192424297,
					-0.07925646007061005,
					-0.08354607224464417,
					-0.04744180291891098,
					-0.07492926716804504,
					-0.002725144848227501,
					0.09067392349243164,
					0.23328208923339844,
					0.3384980261325836,
					0.17016057670116425,
					0.15178170800209045,
					-0.14453911781311035,
					-0.24233169853687286,
					0.3238517642021179,
					0.030627069994807243,
					0.3119904696941376,
					-0.1568378061056137,
					-0.4644745886325836,
					-0.24408890306949615,
					-0.010399878956377506,
					0.17387834191322327,
					0.08055826276540756,
					-0.043163858354091644,
					-0.1452876329421997,
					-0.2514590322971344,
					-0.04027916491031647,
					0.2629852890968323,
					0.2274065762758255,
					0.22780562937259674,
					0.012926837429404259,
					0.11567319184541702,
					0.08395455032587051,
					0.06741654872894287,
					-0.28230929374694824,
					-0.30730101466178894,
					0.03618486598134041,
					0.07136441767215729,
					0.20558011531829834,
					0.22966508567333221,
					-0.019994860514998436,
					-0.06515330076217651,
					-0.10194924473762512,
					0.0210646390914917,
					0.28971973061561584,
					0.200082927942276,
					-0.14483726024627686,
					0.12111766636371613,
					-0.21362827718257904,
					-0.1186298131942749,
					0.13759225606918335,
					-0.03794332966208458,
					0.20506103336811066,
					-0.03883959352970123,
					-0.21653133630752563,
					-0.2137608826160431,
					-0.2498217225074768,
					0.03375678136944771,
					0.09757724404335022,
					0.2930966019630432,
					0.32687944173812866,
					0.09665185213088989,
					0.1777632087469101,
					0.04517685994505882,
					0.018889183178544044,
					-0.07839974761009216,
					-0.30611714720726013,
					-0.1607803851366043,
					0.034632179886102676,
					0.017334172502160072,
					0.11073700338602066,
					-0.028401127085089684,
					-0.12164123356342316,
					-0.13795135915279388,
					-0.1052277535200119,
					0.03177683427929878,
					0.03491523861885071,
					0.22086964547634125,
					0.032550688832998276,
					-0.14281070232391357,
					-0.2839394807815552,
					-0.20186838507652283,
					-0.14035052061080933,
					0.1742788553237915,
					0.2175142765045166,
					0.3914307951927185,
					0.4119180738925934,
					-0.43270009756088257,
					-0.03674476593732834,
					0.2798571288585663,
					0.12710855901241302,
					0.17033475637435913,
					-0.04276534169912338,
					-0.10976329445838928,
					-0.13586269319057465,
					-0.07573267072439194,
					0.16825450956821442,
					0.14606693387031555,
					0.12306971848011017,
					-0.0374344065785408,
					-0.12184297293424606,
					0.023237550631165504,
					-0.00786154717206955,
					0.03919471055269241,
					0.142439067363739,
					-0.14376488327980042,
					-0.0685502365231514,
					0.15423466265201569,
					-0.45363810658454895,
					-0.436660498380661,
					-0.11220411956310272,
					-0.05369439348578453,
					0.21694134175777435,
					0.4409070909023285,
					0.22958160936832428,
					-0.15067903697490692,
					-0.0374390184879303,
					0.10848010331392288,
					0.43193745613098145,
					0.550875186920166,
					0.03272315859794617,
					-0.22415679693222046,
					0.09173017740249634,
					-0.12529592216014862,
					-0.07161976397037506,
					0.011011156253516674,
					0.17026427388191223,
					-0.1110532134771347,
					-0.2879323363304138,
					-0.12234827131032944,
					-0.09575114399194717,
					0.18751446902751923,
					-0.11318404227495193,
					0.04884880781173706,
					0.048646505922079086,
					0.0151279391720891,
					0.2459031194448471,
					-0.25358691811561584,
					-0.10299338400363922,
					-0.19616380333900452,
					-0.18793584406375885,
					0.06019996106624603,
					0.008367402479052544,
					-0.16868583858013153,
					-0.4049750566482544,
					-0.46731582283973694,
					-0.17666326463222504,
					-0.04662249609827995,
					-0.05999651551246643,
					-0.014828624203801155,
					-0.22526925802230835,
					-0.05229974538087845,
					-0.02909877523779869,
					0.08840242028236389,
					0.23791512846946716,
					0.0722699835896492,
					-0.06836764514446259,
					0.015946097671985626,
					-0.10943970084190369,
					-0.22354215383529663,
					-0.08929966390132904,
					0.03154727816581726,
					0.2537643611431122,
					0.21036723256111145,
					-0.24784831702709198,
					-0.10344899445772171,
					-0.11864551901817322,
					0.32561832666397095,
					0.2907000780105591,
					-0.2511294484138489,
					-0.35506507754325867,
					-0.24769733846187592,
					0.05232361704111099,
					0.3930177390575409,
					0.12330874800682068,
					-0.21666698157787323,
					-0.20308499038219452,
					-0.40560096502304077,
					-0.23341409862041473,
					0.025890156626701355,
					0.07407700270414352,
					-0.14282847940921783,
					-0.2927989363670349,
					-0.06332054734230042,
					0.10582295060157776,
					-0.013347513973712921,
					0.11939357966184616,
					-0.26731207966804504,
					-0.24042388796806335,
					-0.1009785607457161,
					-0.06591559201478958,
					-0.19077351689338684,
					0.08757422119379044,
					0.26366302371025085,
					0.18565402925014496,
					0.09527315944433212,
					-0.09264238178730011,
					0.013840134255588055,
					0.22486041486263275,
					0.057980459183454514,
					-0.051882147789001465,
					-0.04239865019917488,
					-0.3021133840084076,
					-0.46336066722869873,
					-0.21555224061012268,
					-0.10632559657096863,
					0.015958262607455254,
					-0.43082547187805176,
					-0.12960804998874664,
					-0.17634336650371552,
					-0.16449986398220062,
					0.15785379707813263,
					-0.3503156304359436,
					-0.3865599036216736,
					0.006371114868670702,
					0.13385999202728271,
					-0.1023821234703064,
					-0.1418522596359253,
					-0.3068169951438904,
					-0.25346893072128296,
					0.09816613048315048,
					0.12824752926826477,
					0.3218213617801666,
					0.0005179356085136533,
					-0.2876690924167633,
					-0.39790430665016174,
					-0.15028555691242218,
					0.21305672824382782,
					0.052910879254341125,
					0.049317616969347,
					-0.21176709234714508,
					-0.3370386064052582
				],
				[
					-0.13359320163726807,
					-0.029252422973513603,
					-0.06695817410945892,
					-0.00973055511713028,
					-0.05657193437218666,
					0.04824354127049446,
					-0.060844212770462036,
					-0.05761785805225372,
					0.04508630186319351,
					-0.032133519649505615,
					-0.09647756814956665,
					-0.045591019093990326,
					0.04072079807519913,
					0.022767292335629463,
					-0.012678995728492737,
					-0.06634066998958588,
					-0.1307453066110611,
					-0.0448528453707695,
					-0.08494318276643753,
					-0.10146215558052063,
					-0.17884060740470886,
					-0.09053990244865417,
					-0.0025769169442355633,
					-0.03718714416027069,
					0.02838100865483284,
					-0.10674997419118881,
					-0.05925024300813675,
					0.08237382769584656,
					-0.020130690187215805,
					0.10713272541761398,
					0.010504049248993397,
					-0.0804295614361763,
					-0.10836995393037796,
					-0.10649131238460541,
					-0.1284063309431076,
					0.12188197672367096,
					-0.06613479554653168,
					0.056530699133872986,
					-0.08649688959121704,
					0.006099322345107794,
					0.13824865221977234,
					0.25020942091941833,
					-0.04362882673740387,
					0.025324713438749313,
					-0.011877103708684444,
					0.5118290185928345,
					0.4444239139556885,
					-0.09929301589727402,
					0.026608023792505264,
					0.00015740355593152344,
					0.09000717103481293,
					0.08760195970535278,
					0.08250917494297028,
					0.0004671181086450815,
					0.04622236639261246,
					0.021075742319226265,
					-0.06678096950054169,
					-0.08596793562173843,
					-0.015214849263429642,
					0.1126144602894783,
					-0.06641052663326263,
					-0.16121205687522888,
					0.021030757576227188,
					-0.04844755306839943,
					0.10539490729570389,
					-0.0890546590089798,
					-0.22919610142707825,
					-0.0040712314657866955,
					-0.09670209884643555,
					-0.10025312751531601,
					-0.22789742052555084,
					-0.20450124144554138,
					0.11237463355064392,
					-0.137964129447937,
					-0.09570620954036713,
					-0.20841892063617706,
					0.13443364202976227,
					0.08298709988594055,
					-0.07016994804143906,
					0.052078794687986374,
					0.08529728651046753,
					0.3828316628932953,
					0.09433415532112122,
					-0.07509516924619675,
					-0.1993982344865799,
					-0.03224125877022743,
					0.0810260996222496,
					-0.006823661737143993,
					-0.1895703673362732,
					0.037060629576444626,
					-0.020587235689163208,
					0.002384968101978302,
					-0.19376352429389954,
					-0.2885596752166748,
					0.009146020747721195,
					0.004955078009516001,
					-0.13326017558574677,
					-0.29561036825180054,
					-0.14895768463611603,
					-0.04009130224585533,
					-0.11833564937114716,
					0.0474000908434391,
					0.004518019035458565,
					0.0933593288064003,
					-0.23595194518566132,
					0.018590811640024185,
					0.05017191544175148,
					0.1142306998372078,
					-0.1198248416185379,
					-0.13726706802845,
					0.009005160070955753,
					0.06568707525730133,
					-0.04380223900079727,
					-0.004393864423036575,
					0.15942983329296112,
					-0.028694815933704376,
					-0.10336507856845856,
					0.13149859011173248,
					0.12864060699939728,
					-0.023196525871753693,
					-0.11947072297334671,
					-0.08205573260784149,
					0.05513270944356918,
					-0.010909407399594784,
					-0.053308915346860886,
					-0.29484042525291443,
					-0.1575019657611847,
					-0.04383223131299019,
					-0.12352029234170914,
					-0.11250871419906616,
					-0.23295719921588898,
					-0.19113992154598236,
					0.012894679792225361,
					-0.10090827196836472,
					-0.2786068022251129,
					-0.16491106152534485,
					-0.0826222151517868,
					-0.10217710584402084,
					-0.11080524325370789,
					-0.17927485704421997,
					-0.03220907598733902,
					0.06625978648662567,
					-0.07679491490125656,
					-0.2058447003364563,
					-0.3062790036201477,
					-0.16922719776630402,
					0.042741648852825165,
					0.17371241748332977,
					-0.14611153304576874,
					-0.07066193222999573,
					-0.19120073318481445,
					0.06715884804725647,
					0.1284213364124298,
					0.036344729363918304,
					0.025437669828534126,
					-0.1348307579755783,
					0.11138135939836502,
					-0.08681375533342361,
					0.06611773371696472,
					0.21650362014770508,
					0.08632098138332367,
					-0.06431461125612259,
					-0.08859585225582123,
					0.04859495162963867,
					0.03400546684861183,
					0.0798032283782959,
					-0.12437604367733002,
					0.10393082350492477,
					-0.06455032527446747,
					-0.030645685270428658,
					0.2872060239315033,
					0.18440845608711243,
					0.3667435050010681,
					-0.14383232593536377,
					-0.2404181957244873,
					-0.10957448184490204,
					-0.12132817506790161,
					-0.1189660131931305,
					-0.02993505261838436,
					0.02215806022286415,
					0.014972299337387085,
					0.10639510303735733,
					-0.0783160999417305,
					-0.14679306745529175,
					0.03538121283054352,
					0.3839429020881653,
					0.2101646512746811,
					-0.1140880137681961,
					-0.09876537322998047,
					0.07899686694145203,
					0.4209854006767273,
					0.1455332338809967,
					-0.18885095417499542,
					-0.17850403487682343,
					0.109737828373909,
					0.5469776391983032,
					0.2250528335571289,
					-0.23997102677822113,
					-0.00907389260828495,
					0.1652565449476242,
					-0.04704075679183006,
					-0.02325969934463501,
					-0.10963365435600281,
					-0.054845020174980164,
					-0.022620342671871185,
					-0.026340682059526443,
					0.0010548385325819254,
					-0.029652124270796776,
					-0.1765344738960266,
					-0.040004912763834,
					0.051582176238298416,
					-0.11637111008167267,
					-0.10767625272274017,
					-0.02813420258462429,
					0.023973392322659492,
					-0.19993296265602112,
					-0.22141008079051971,
					-0.11686957627534866,
					0.04436419904232025,
					0.011092846281826496,
					-0.290986031293869,
					-0.22518599033355713,
					-0.031349681317806244,
					-0.10901301354169846,
					-0.09327598661184311,
					0.030926691368222237,
					0.21619004011154175,
					-0.027016807347536087,
					-0.1567852795124054,
					-0.13456013798713684,
					0.27611953020095825,
					0.12487052381038666,
					-0.10246729850769043,
					-0.16539457440376282,
					0.0008760192431509495,
					-0.11217989772558212,
					-0.008709641173481941,
					-0.17980214953422546,
					-0.23229405283927917,
					-0.025227747857570648,
					-0.20593701303005219,
					-0.13792835175991058,
					-0.329048216342926,
					-0.3534659445285797,
					-0.09089493751525879,
					-0.25547340512275696,
					-0.19411949813365936,
					-0.5433130860328674,
					-0.5627520680427551,
					-0.31203678250312805
				],
				[
					0.04906931146979332,
					-0.14860405027866364,
					-0.23071503639221191,
					-0.2784344553947449,
					-0.29741838574409485,
					0.14069317281246185,
					0.02483704499900341,
					-0.252689391374588,
					-0.14156997203826904,
					-0.12658800184726715,
					-0.038735900074243546,
					-0.18225440382957458,
					-0.3241868317127228,
					-0.20422744750976562,
					-0.16545435786247253,
					-0.15717864036560059,
					-0.20075814425945282,
					-0.09464969485998154,
					-0.10687584429979324,
					-0.014764917083084583,
					-0.12174145132303238,
					-0.14774127304553986,
					-0.053672727197408676,
					-0.034526146948337555,
					-0.032104332000017166,
					-0.08841095119714737,
					-0.02276320569217205,
					0.10925337672233582,
					-0.06182195991277695,
					-0.0391480028629303,
					-0.13123303651809692,
					0.06261783093214035,
					0.08790574222803116,
					0.02737300656735897,
					-0.018470579758286476,
					0.08173468708992004,
					-0.01023110467940569,
					0.03269178420305252,
					0.10608421266078949,
					-0.11631007492542267,
					0.24696794152259827,
					0.18430732190608978,
					0.12047062069177628,
					0.13742372393608093,
					0.14019423723220825,
					0.218812957406044,
					0.19549086689949036,
					0.0855681374669075,
					-0.01900685392320156,
					0.05224654823541641,
					0.0931001529097557,
					0.13005013763904572,
					-0.0006147823296487331,
					0.15575683116912842,
					0.2373410016298294,
					0.1451258659362793,
					0.020021110773086548,
					-0.04978466033935547,
					-0.08866703510284424,
					0.04743101820349693,
					-0.09985135495662689,
					-0.15801765024662018,
					-0.13570129871368408,
					0.051965706050395966,
					0.10334788262844086,
					-0.1973394900560379,
					0.02653808519244194,
					0.1387760043144226,
					0.013297912664711475,
					-0.0489901639521122,
					0.06199169158935547,
					0.08044903725385666,
					0.12510961294174194,
					0.04362057149410248,
					-0.1493789553642273,
					-0.005315866321325302,
					0.18299143016338348,
					0.09792368859052658,
					0.08360612392425537,
					0.47393855452537537,
					0.014854527078568935,
					0.019876904785633087,
					-0.03635755926370621,
					0.03763929754495621,
					0.20479023456573486,
					0.1435813456773758,
					0.10875412821769714,
					0.10053491592407227,
					0.0016227448359131813,
					-0.19231915473937988,
					-0.12805768847465515,
					-0.11586949229240417,
					-0.31538107991218567,
					-0.2553529739379883,
					-0.19932562112808228,
					-0.18690267205238342,
					-0.11853340268135071,
					-0.20752128958702087,
					-0.270839661359787,
					-0.2551737427711487,
					-0.11963798105716705,
					-0.24127337336540222,
					-0.35988277196884155,
					-0.1804608404636383,
					-0.09552755206823349,
					-0.09827589243650436,
					-0.0257720984518528,
					-0.04360580071806908,
					0.20096920430660248,
					0.44509178400039673,
					0.048341214656829834,
					-0.1060904711484909,
					0.0976751372218132,
					0.17708219587802887,
					0.22366976737976074,
					0.026690125465393066,
					-0.09497115761041641,
					0.04850025475025177,
					0.13964955508708954,
					-0.06801008433103561,
					-0.2752548158168793,
					-0.08725840598344803,
					-0.03656907379627228,
					-0.07912939786911011,
					0.058592647314071655,
					0.04667062312364578,
					-0.031345199793577194,
					-0.03700970485806465,
					-0.1379956305027008,
					0.0017642807215452194,
					-0.1315450668334961,
					-0.22095461189746857,
					-0.01638171449303627,
					0.015784235671162605,
					0.12096140533685684,
					-0.1750427931547165,
					-0.041465308517217636,
					0.08769618719816208,
					0.31560319662094116,
					0.33351609110832214,
					0.021454641595482826,
					0.31686893105506897,
					0.3464922606945038,
					0.19070939719676971,
					-0.03167707473039627,
					0.4875170886516571,
					0.2795042395591736,
					0.26230135560035706,
					0.11944926530122757,
					-0.2820366621017456,
					-0.11040814965963364,
					-0.233716681599617,
					-0.15479442477226257,
					-0.24462421238422394,
					-0.22071361541748047,
					-0.16832609474658966,
					-0.10689158737659454,
					-0.1420922428369522,
					-0.02276553399860859,
					-0.302742600440979,
					-0.10557638853788376,
					-0.05186783894896507,
					0.07481728494167328,
					-0.15311339497566223,
					-0.09031260013580322,
					0.08077982813119888,
					-0.007288159336894751,
					0.058904968202114105,
					-0.18619666993618011,
					0.10270876437425613,
					0.08835866302251816,
					0.009896669536828995,
					-0.10421158373355865,
					-0.12810342013835907,
					0.3262970447540283,
					0.1799803227186203,
					0.17993783950805664,
					0.11709579080343246,
					-0.10892987996339798,
					-0.15185430645942688,
					-0.012061294168233871,
					-0.07536230236291885,
					0.03594265133142471,
					-0.05821032449603081,
					0.15143178403377533,
					0.049753107130527496,
					0.1898047775030136,
					0.041563764214515686,
					-0.19095022976398468,
					0.07189203798770905,
					0.12779785692691803,
					0.09255582094192505,
					0.09165378659963608,
					-0.2011876404285431,
					0.10111121833324432,
					0.3229668140411377,
					0.009852604009211063,
					0.0825522318482399,
					-0.12643024325370789,
					-0.13056616485118866,
					0.15311524271965027,
					0.07796364277601242,
					-0.10917504131793976,
					-0.1161726638674736,
					0.1599322110414505,
					-0.023828228935599327,
					-0.18257620930671692,
					-0.15694276988506317,
					0.06239518150687218,
					0.16422392427921295,
					-0.16309022903442383,
					-0.2690737247467041,
					-0.21858550608158112,
					0.1597272753715515,
					0.18522335588932037,
					-0.4651615023612976,
					-0.14894063770771027,
					0.0936269536614418,
					0.24137814342975616,
					0.016289573162794113,
					-0.29759475588798523,
					0.05678168684244156,
					0.34411388635635376,
					0.15631119906902313,
					0.15169507265090942,
					0.15948817133903503,
					0.03754112124443054,
					0.1751953363418579,
					0.25339066982269287,
					0.23838257789611816,
					0.24819327890872955,
					-0.10318351536989212,
					0.021442634984850883,
					-0.05127955600619316,
					-0.12548083066940308,
					-0.07304000854492188,
					-0.4790424704551697,
					-0.3749399781227112,
					-0.20660856366157532,
					-0.04697396606206894,
					-0.36823326349258423,
					-0.27281084656715393,
					-0.21569183468818665,
					-0.05473512038588524,
					-0.056706517934799194,
					-0.4977768063545227,
					-0.1640506237745285,
					-0.1402236372232437,
					-0.02000724896788597,
					-0.285291850566864
				],
				[
					0.03841143846511841,
					0.16107822954654694,
					0.16844849288463593,
					-0.1505698412656784,
					-0.11616533249616623,
					-0.008995799347758293,
					0.08771868795156479,
					0.07315176725387573,
					0.12827572226524353,
					0.02180067077279091,
					-0.04661909118294716,
					-0.001709948992356658,
					0.136697918176651,
					0.10938873142004013,
					0.08582773804664612,
					0.0007636608788743615,
					0.10898781567811966,
					0.08494426310062408,
					-0.052393440157175064,
					-0.05796341970562935,
					-0.09401221573352814,
					-0.043040353804826736,
					0.21302837133407593,
					-0.003856990486383438,
					-0.059850599616765976,
					-0.20717871189117432,
					-0.09750907123088837,
					0.001856544055044651,
					0.042614519596099854,
					-0.15533220767974854,
					-0.19559326767921448,
					-0.11747407168149948,
					-0.24462692439556122,
					-0.10401792079210281,
					-0.1965356022119522,
					-0.08232428878545761,
					-0.16224335134029388,
					-0.17615261673927307,
					0.049877144396305084,
					-0.22846153378486633,
					-0.04420144110918045,
					-0.10529867559671402,
					-0.06890282034873962,
					0.012638199143111706,
					-0.08221228420734406,
					-0.000814140192233026,
					-0.01372230239212513,
					-0.02150869369506836,
					-0.09507743269205093,
					-0.18405035138130188,
					-0.35725584626197815,
					-0.28313982486724854,
					-0.12719844281673431,
					-0.029422752559185028,
					-0.14371410012245178,
					-0.21289053559303284,
					-0.239409938454628,
					-0.268830806016922,
					-0.2512032091617584,
					-0.18802665174007416,
					-0.024588104337453842,
					-0.07215161621570587,
					-0.16459442675113678,
					-0.13688692450523376,
					-0.12972722947597504,
					-0.03544098883867264,
					-0.05006380006670952,
					0.16505862772464752,
					0.10565303266048431,
					0.06624168902635574,
					0.03356075659394264,
					0.08908923715353012,
					0.15785889327526093,
					0.08872618526220322,
					-0.08055992424488068,
					-0.5744770765304565,
					-0.47305217385292053,
					-0.1952318400144577,
					-0.04242686927318573,
					0.06319788098335266,
					-0.4038735628128052,
					-0.3426681458950043,
					-0.26864394545555115,
					-0.27196019887924194,
					-0.1095588356256485,
					0.009499967098236084,
					-0.09692998230457306,
					-0.15476565062999725,
					-0.28011849522590637,
					-0.3848516047000885,
					0.2509028911590576,
					0.21987634897232056,
					0.3131447732448578,
					0.1279022991657257,
					-0.037757933139801025,
					0.06916208565235138,
					0.10100860893726349,
					0.04825209081172943,
					0.15031416714191437,
					0.012109866365790367,
					-0.18276554346084595,
					-0.20361287891864777,
					-0.13348975777626038,
					-0.08598514646291733,
					-0.12215141952037811,
					-0.04757149517536163,
					-0.056736353784799576,
					-0.24877899885177612,
					-0.1650543212890625,
					-0.11911707371473312,
					-0.08148249983787537,
					-0.05183197930455208,
					0.00815302412956953,
					0.021011022850871086,
					0.1226179227232933,
					0.01699778623878956,
					0.05492192134261131,
					-0.04260900989174843,
					-0.0010656099766492844,
					-0.18455104529857635,
					0.12128405272960663,
					0.13642564415931702,
					-0.02671469748020172,
					0.11157003790140152,
					-0.007824579253792763,
					-0.1065806970000267,
					-0.10938123613595963,
					-0.049672018736600876,
					-0.07824940234422684,
					-0.12642145156860352,
					0.08359345048666,
					0.07642049342393875,
					-0.021081455051898956,
					-0.017703572288155556,
					-0.05691591277718544,
					0.010120004415512085,
					-0.03696800768375397,
					0.12445588409900665,
					0.034022003412246704,
					-0.06381972879171371,
					0.023797335103154182,
					0.06537703424692154,
					0.05077867954969406,
					0.13575436174869537,
					-0.03670093044638634,
					-0.0072510698810219765,
					0.32629692554473877,
					0.19597351551055908,
					0.10782095044851303,
					-0.02469533123075962,
					-0.2997394800186157,
					-0.08171819150447845,
					-0.03183603659272194,
					-0.07384704053401947,
					0.0278730858117342,
					-0.39334991574287415,
					-0.2505757510662079,
					-0.1267762929201126,
					-0.21483923494815826,
					-0.2066386193037033,
					-0.08037536591291428,
					-0.07004514336585999,
					-0.08192107826471329,
					-0.06712184846401215,
					0.027985069900751114,
					-0.0005581299774348736,
					-0.09171801805496216,
					-0.05718395859003067,
					-0.0215481985360384,
					0.016416439786553383,
					0.017251264303922653,
					-0.08904184401035309,
					-0.21932655572891235,
					-0.05199827253818512,
					-0.08189486712217331,
					-0.1834961622953415,
					0.06807032227516174,
					0.15047591924667358,
					0.037549976259469986,
					0.28813180327415466,
					-0.23072801530361176,
					-0.15845061838626862,
					0.08168676495552063,
					0.07083406299352646,
					0.05061095207929611,
					-0.21204519271850586,
					-0.34362900257110596,
					-0.12400148063898087,
					0.027980949729681015,
					-0.17172011733055115,
					0.007349861785769463,
					-0.015391009859740734,
					-0.21614037454128265,
					-0.16780094802379608,
					-0.2368573248386383,
					-0.014258094131946564,
					0.22662267088890076,
					-0.08157224953174591,
					-0.08493863046169281,
					-0.008848589845001698,
					-0.024725742638111115,
					0.072965107858181,
					-0.08391366899013519,
					-0.1591540426015854,
					-0.12115754187107086,
					0.047738056629896164,
					0.2632243037223816,
					0.16737185418605804,
					0.10881981253623962,
					-0.023071467876434326,
					-0.08228030800819397,
					0.13077419996261597,
					0.16602922976016998,
					0.15094305574893951,
					0.1653442680835724,
					-0.23855535686016083,
					-0.12316922843456268,
					0.029130449518561363,
					0.0003895560512319207,
					-0.0943371132016182,
					0.13739584386348724,
